{"layers": 3, "weights": [[[0.46953481293362964, -0.9654654083425814, 0.49748781030382144, -0.0762052729142957, -0.48373534292931486, 0.5065974091666132, 0.6317884211704482, 0.8074004240108981, 0.9362630587943839, -0.5220227895524383, 0.19395733093675616, -0.5165128364962827, -0.7466244289333255, 0.5499564853129157, 1.8550425152889296, 0.871709152410206, 1.9373886325445127, -0.9383557912801194, -0.7420100331680958, 0.5019368884067738, 0.04280822932052179, -0.5949637273320167, -1.3853673750023643, 2.152376837255071, -0.24655024517359406, 0.008400937181123653, 0.08900641896976888, 0.15987131285260814, 0.888177732678435, 1.5094678321445745, -0.08637343683491039, 0.008180678562506772, 0.1723368112782959, -0.5318369254258544, -1.1899042105113784, -0.8619463655506532, -0.37500244537032873, -0.9806143897322837, -0.8085224413230242, -1.7559654660057997, -1.2511054957439416, -0.5981588328591632, 0.5122724303082988, 0.43111756622970365, 1.7186395853585914, -0.09050452733581557, 1.1964900811249037, 0.8322993227199894, -0.44301331409689293, 0.6176861203727114, 1.341140048410842, -0.5852819754627973, -1.4645881970169474, 0.7201965003314323, 0.9302094096663923, 0.27157654071142917, 0.518992905764784, -0.5112278893588241, -0.7682839425599013, -0.25442022649902135, -0.38326432247174536, -1.969574698350766, -1.132651797607517, -0.035758323561734494, -0.2020811788410584, -0.9629439805339552, -0.7681083270103375, 0.2198228510962695, -0.5631998689562298, -0.8780039043674838, 1.0764409613038548, 0.2253629107342361, -0.6021750597578194, 0.19145400587067504, -0.8929210421769945, -1.595393500122596, -0.3393597064119324, -1.226450239235319, -0.9969488009854938, 1.1227715891939742, 0.3489445841767672, 0.9648109258883721, 0.37997065285283066, -0.4668313268940171, -0.7948614065613716, -0.5388485870267975, -1.3987893533188132, 0.46956001035267936, -0.7961534637643493, -3.1006804316101158, 0.23698338933447446, -0.2974715149805126, -0.31368658234832064, 0.060336570469110666, 0.8912798323197032, 2.432422425265611, 1.3024471421775732, -0.9787451194585499, 0.33655116398399737, 0.7141050017792453, -0.16321718169006474, 0.9191087460233965, 0.3721154111037751, -0.7488054103561385, -0.24000836110209808, 0.6788700315183596, -1.6989153564847406, 1.6230320722139109, 2.0170507704510032, 0.30757666572973696, 0.3364513240114687, 1.2591172765084433, 0.705808672770432, -1.272452885947622, 0.6760912045831837, -1.0134019995198127, 0.7418723351086836, -1.4022926174516144, 0.11576237165058627, -0.8169064372824163, -0.39267692488639444, 0.8661716143130925, -0.15204076833383556, -0.030224946489722467, 2.076443725104604, 1.3343080756026204, -0.16909206739801283, -1.2336890180344584, 0.6459041696831542, 1.5348797018403955, -0.31445985489142136, -2.1429422727978493, 0.08989077881994252, 1.1001715806375767, 0.632099231801432, -0.3593402691958891, 0.4093423519124985, 0.3813053993680905, 1.2075981626080392, -0.8436685197385806, 0.6799940360941235, 0.9541751343858251, -0.247224697657559, 0.2952479501709608, 0.7682494790885571, 1.137251315134952, -1.150482686587016, 0.17030347327737683, -1.1553654184152846, -1.8768016615174452, -1.634314538389964, -1.3541758839165978, 0.2285001106755326, -0.5614103054213362, -1.472382774406946, 0.5005288206207305, 0.29137508727080136, 1.1201593130437415, -0.7354285598420864, -2.119107517472507, -2.279724497192798, -1.1516232451989645, 1.4275464103998794, -0.5940833636870395, -0.9895258384759226, -0.38619616656077477, 0.7263107200185305, -1.1076152857181925, 0.3043671956493243, -1.173232133852017, 0.4078297076889651, -1.0636497771684015, 0.4443633829479303, 0.4620240756002559, 0.01367760816447572, 0.03634892597349529, -0.3983038740697225, -1.069720840830939, 0.47146258689168785, -0.07590145185430916, 0.15032400591105052, 0.056947694346828816, -0.46633441550262006, 0.434777627133568, -2.7272283895941074, 1.3682508403471736, 0.5099762814730981, -0.1943735744514629, -1.9679805110513509, 0.35472772072167297, -0.6870473238761641, -0.797614734908536, 1.0645745363681889, 0.06272221081271845, -0.019730030322446312, -2.555779300092001, -2.6076095614207535, 0.5050214483674027, -0.34637132860342873, 0.1654773696144017, 0.07244336551616758, 0.006075959376711325, 1.3791544957469184, -1.945922239146112, -1.515489312938796, 0.06484264205268984, 0.2005141149900945, 1.0034942419947628, 0.5959167679568093, -0.4749876537423424, -0.833157636118011, 0.4680954427668892, -0.5125346013514863, -1.1860820036710138, -1.1547069232962146, -0.16613781298880367, 0.5669479926298939, 0.7299967435091399, 0.551032762288468, -1.8590974367260515, -0.4082070643116167, -0.4704781246280149, -0.38757759188921864, 1.3193469567308975, 0.2426410933260966, 0.10836800619524577, -0.1881652207107518, -0.24688460096891202, 0.4639713396925043, -0.17593115318716976, 2.2256710527881967, -0.47132175150305855, 0.2779506356730914, -1.1378319665198255, -0.8296958802838303, 1.3099100919817854, 0.10746790088733173, -0.1288137912038362, 0.6990947634565944, 0.7804406915599704, -0.3749835899833322, 0.18673559498440442, 0.8138800413778313, 0.4505771437166554, -0.13672574191775796, -2.29355549387214, -0.10400950745158699, -0.5369625790180295, -0.10344037502999004, -0.09407690484634709, 0.2688047367724718, -0.6140846882068607, 0.1775442385215658, 0.9337478543148267, 1.6381433276594277, 0.3674997619528737, 0.1241836459730239, 1.0100986997805004, 1.5485611377121256, -0.7243944431243895, -0.07415922453397754, -1.8688557898986433, -1.1481168346964417, 0.8236815318979416, -0.8913038428146828, -0.5031752928363059, -0.4635281142338006, 1.0133872360446368, 0.7188206956973413, 1.2949056646237063, 0.7515581612510163, 0.0415358964867788, -0.3776352461062461, 0.1550000476449191, -0.9308514011473242, 0.5754420873658501, -0.026761042493883058, 1.744616406780368, -1.3598682580554864, -0.40581595316914565, -3.2504906422938973, -0.4932563517874748, -2.225560003658388, -1.177095214457508, -0.5670400940527721, 0.529683696814616, -0.7086119974202599, -0.2547340516454055, 0.9181028778525121], [0.4560417116277373, 1.2734840505392149, 0.3304682083175838, 0.4024363678763117, 0.2082684315505859, 0.22861512857968583, 0.32230901806368345, -0.6591146280926179, 0.27885509918453927, 0.2848748718209248, -0.5509669725182427, 1.286846641618266, 1.3250972377247532, -1.1315278096634385, 0.129607476765581, -1.8418664252376507, -0.40811125488792005, 0.4527347010626205, 1.1289765446394133, 0.5083850249741749, 1.1404012777036487, 0.8999073328044055, 1.0613295235994915, -1.7890821376307122, -1.1028456284902552, -0.7766426147090104, -0.4736097053729293, 0.11684594664204208, -0.3175123389593546, 1.0407515547341117, 1.6053196846119575, -0.6159271681134559, 0.7273606780186634, 0.636299745217313, -0.6037171742755936, -0.8500382553547375, -0.41965874046630225, -0.6752486993555119, -1.2953692904184348, 0.873486818017279, -0.5964241994948738, -2.17051934089867, -1.5374186723481031, -0.2609628970170406, -0.7253390730810171, 0.15135588767895186, 4.512065977766817, -1.6042400649452913, 0.6901605320640986, 0.2407095850988038, 1.8636289378974884, 0.22055933083117654, -1.4318520241510109, -1.4317195438302441, -1.3029976308201074, -1.6307088320159393, -1.521578142250364, -0.332998864984592, 0.18056945804711605, 0.2328803959497433, 1.718755449130336, 0.10902782278766728, 1.5026551876927516, -0.6901493687007945, -1.2256344326423532, -2.0592199736182524, -1.2166185919616286, 0.0025496264527047844, -0.5111410830059073, -0.46797613436484403, -0.9049885595546192, -1.2320726750463018, -1.3303731260361746, -1.8966585409891445, -0.3976897936929517, 0.17712678108290408, -0.1514698862313663, 0.27586149761998174, -1.369079211610507, -0.6900799745493066, -1.4535247088234888, -0.04779112819148099, 0.7591552527848012, -1.179336179878257, 0.7903033285734248, -0.02777691837161193, -0.7612647737250176, -0.5718669063326867, 1.7105534091199328, 0.5363087977120847, 0.5571889123673903, 1.8890315192858156, 2.1984898067516765, 0.7788019116277656, -0.9062351414342071, -1.3053271524838204, 0.2780533193327597, 1.0523204988249035, 0.49423645215497464, 0.24742252856043473, -0.17732766500383249, -0.8625862145879933, -0.862329564022599, -1.4676897451222357, 0.6435692156592097, 0.925412008708371, 1.7080643805818194, 1.8529026104967223, 0.7609028379579512, 2.3925571770721734, 2.3284889887013756, 1.251786216050807, 0.3375266909258867, 0.6223320944151459, 0.6202729787020328, -0.15808046677707246, -0.989170856090479, 0.22314311059060543, -0.35794965550915175, -0.530477926545776, -3.0514076117875817, -0.2780533736494357, 2.1641797617429868, 0.9572678822559921, 1.3954431954685127, -0.851721276736525, 1.4470635659011006, 0.5512942454720788, 0.7620642514247635, -0.4370921886608756, -1.1503435465344363, -2.4787496518507575, 1.4023517107353076, -0.35875886315031075, -0.8168209709731422, 0.0383811995407893, -0.6473131394189394, -1.3007538639238732, -0.1268980835160676, -0.24508029858773026, 1.6121080049352423, -0.17018871236582947, -0.755845022333312, -0.06945413788575597, -0.2523022600628498, 0.1568840108687847, -0.32646804372837607, -0.6680289691457862, 0.5236959241267263, 0.5568163350099647, 0.7199200288006741, 0.9453719942636577, -0.8668970223323043, 0.5127662720759318, -1.2130904873608401, 0.2035265607281914, -0.009963116024900718, -1.5923767892403975, 0.14370124692170533, -1.4975526117423765, -1.335674343449255, -1.9101803966569746, -1.584768502560299, -0.2369494196472401, -1.0791608244166788, -1.3859485501197948, -0.2160238686735472, -0.7741505201659079, -0.061410360878700915, 0.7826833272230107, 2.300774266395125, 0.7547159574015466, 2.6701828483195587, -0.8261499899763102, -0.9299994575464294, -0.5085864635110379, -1.9395135238100838, -0.9818110301231028, -2.3657024327745098, -1.143546148447639, -0.35928899971947814, -0.46907580226416096, -1.547571911515078, 0.1639335626377029, 1.728928716066863, 0.5130220762582949, 1.0421410434628784, 1.3461295837992953, 2.014142650688593, 2.9494441398264484, 1.0456828645348144, 0.9892883319994087, 0.10159407462014278, -0.44315801282286255, -0.48932031462090547, 0.1709802198092914, -0.5201946592103144, 0.3603625474092887, -2.3128508995569605, -1.311020119436905, 0.2230370086506242, 0.7749113524951551, 2.6139699405727694, -0.18111921122674607, 1.5461414887076363, 1.432710275713517, 1.6076016830834585, 0.7706363563019177, -0.055665065733966096, -0.9085493538070458, -0.5644736792355092, -0.7597825692161189, -1.015466598099771, 0.11893585644575387, 0.8032273808030005, -0.3542573528300979, -1.3942771693300815, -0.06373414301225559, -0.7059778515291045, -1.0346946816564053, 0.8661984119871909, 0.6938208448908505, 0.7333641932017896, 0.9009215907445097, 1.376134862970069, 0.3201617444185018, 0.18321994636244085, 0.12984099777399263, -0.5573306216851813, 0.1060865587691225, 0.36454750086427345, 0.21847611387362262, -0.3374697418795136, -0.3964341777938565, -0.37945150937213906, 1.3386515019994747, -0.2226588690836776, 0.28553038311939577, 0.35450948427925616, -0.0450385079537851, -0.7483099912729587, -0.29841772396504124, -0.060095490273458875, 0.8662839524232282, 0.37607517629285736, -0.27218971510685797, 0.22971524239032598, 1.4993454485857487, -0.9965928289772141, 0.14331046050679694, -0.8268146892177324, 0.8497939094572995, 1.0877412557256823, 2.1642615006606474, 1.3484684224166636, 1.2073246577212486, -0.1464916746521626, -0.09208152610747004, -0.7095846859073078, -0.9190859455751241, 0.6532237901180316, -0.3722462734821704, 0.04554941258629094, -1.0154209141074426, -0.3962011243492481, -1.2246788148685268, 0.020501828781479606, -1.8409020783670271, 1.2082325825612958, 0.537738691489557, 0.5889694760264759, 1.573792402117874, 0.8196204432451687, -1.6727091378060623, 0.38029683398285674, -0.7409451300882043, 1.037848458947487, -0.44586528284634686, -2.202620777710617, 0.6899273365082503, -0.8639889222699073, 0.5994790128495086, -0.45172597684467447, 0.24701084802143916, 1.6424062206566565, -0.3197465674930173, 0.7643022782584782, -0.44837735130320633, 0.789808653334699], [-0.31859078299701404, -0.2907944516164061, 0.34596739273238336, 0.3094810633402257, 0.49640750413505375, 1.1823204463691046, 1.688554934799263, 0.042046794405600496, -0.9533822331888475, -0.03940641315775628, -0.21466387655519586, 0.861180685317458, -0.2902222817386246, 0.6075181204046283, 0.6548193767936412, 2.225543447385467, 0.025863796683102784, 1.109747860161715, 2.8187253739289164, -1.4690733333060635, 0.30006614987287467, 0.5965812681772056, 1.0850476553334696, 1.3162284348458062, 1.7209662046428376, 1.0163866113325755, -1.6022052948240812, -0.9738679379132041, -0.5219551693916202, -0.33787866226955876, -0.7635227587418075, 1.1132382594310732, 1.0166192156886646, -1.5754274531301196, -0.2344110873084035, 0.23396209230896736, 1.6329446689274656, 0.7023700726389738, -0.9833098167704322, -0.8472684474552359, -0.736190228309979, 1.9219480362796153, -0.3815654353803461, 1.3179161717426282, 1.1321360615506273, 0.8613160008804598, 0.5718546596458646, -0.2599773660328493, 0.9418006722255514, 1.5293901155832088, -0.03761805184202508, 2.040504371952649, -1.5507526188723089, 2.508039370638004, -0.24602800321220808, -0.6935773295466658, 1.9173074037708668, 0.5741173648713807, -0.6086134330481546, -1.6164157580819603, -0.4444087701572572, 0.12067268214163651, 1.3159443718646568, 0.7532451579190738, 1.077498922166454, 0.7600914643833493, -1.1529692173834067, 0.5109835701058962, 1.5120153023764664, 1.394124735133885, 0.7850700263330157, 0.25047147772401546, -0.9973142235947399, -0.6190260340116047, -0.33655860017264083, -0.8186686033282878, -0.4939083810601849, 1.0033096325492235, -0.6258150089192532, -1.2588066295048148, -0.749034381256467, 1.3123238001340893, -0.8589240553661174, -1.5092251489478123, -0.8984316343839204, 1.0245766846990678, -1.241104460454839, 0.16744676743115372, 2.0324328256181867, 0.8232179099409898, 0.7625897476288293, -1.0579910975137083, -0.7103813022453102, 0.4717142326900045, 1.568373861860648, -0.7377867764042167, -2.06916771059967, 1.532093984010554, -0.39080110496580645, 1.112900880158535, 0.09238871296100176, -0.40703922595309416, -0.22076926231387106, 1.3845051060954805, -0.614383699578153, 0.29240113912589477, 1.0719847822703548, 0.04039662676167708, -0.16066034701132867, 0.3778341786659982, 1.1159799556743246, 1.21649423514114, -1.1980707196202602, -0.3991295490691488, 0.16848740335250056, 0.328341075386142, 0.46246338884777616, -0.5395800131859878, -0.8961489546141039, 0.3033064777626048, -0.4108770819933534, 1.1294831639687604, 0.6868497429635808, 0.9693402907703002, 1.23708567285583, 1.531460210189239, 0.9993042846090107, 0.24858568756300115, -0.5175070104275111, -0.9881983118636877, 0.2183234451865757, -0.11473729734167734, 0.9196248563490232, 0.879819687274154, -0.33276469284783045, 0.8516518654572236, 0.4265511834951366, 0.8453161527682386, 1.1131444677262177, 0.8938345157760565, 0.4386723190484128, 0.9906462986320937, -0.6570645630683545, -0.5852486692057157, 1.8091161439536003, -1.1484561226237688, -1.7920642799606623, 0.5637183501264321, -0.5482623076280895, -1.3072196244296976, 0.18053770054048415, -0.7427787402193846, 0.23010347080675597, -1.693289555047881, 0.9071216021707246, -0.9577340767140385, 0.2967052383397273, -0.5204448069371723, -0.9336961485130707, -0.8115841864958953, 0.6263482895551287, 0.03868518724888843, 1.2930473016856225, -0.0724060979857105, -0.9640482088723626, -0.5725689188059718, 0.7198436981174645, 1.501584206570752, 0.7112623355587192, 0.8447830965960088, -0.6440249533532892, 0.2176768525840962, -0.34469510557437066, 1.3253889710573759, 0.19717745058770847, -0.9066427105396767, 0.48742720405402296, -0.5063702947845804, 0.8012742487089305, 1.7095393168187145, 0.59097863252708, -0.3587921048400928, -0.032042704787542425, 0.186889400734148, 0.7361882007781666, 1.5782248097430536, -0.437595141668606, 0.06425253251815571, -0.1743791033889996, 1.5361676891585432, 0.26139457612806627, 0.9688805138631124, -0.4389289451226577, -0.6876372348585504, 0.2537982406466358, -0.8004152612575233, 1.4203355522091188, -0.22286078544470111, 0.4429525308746976, -1.408571659119393, 1.283513789999779, -1.9285482719387252, -0.5259610549341398, -1.8831710466263887, 0.9930208549435945, 2.0980639857157697, -0.9610957836289625, -1.1574075903325212, 0.24688962149227078, 0.29035534637135746, -0.8710137889754049, 1.654558766661117, 1.443676730523974, 0.8991735484365966, 2.6882529961869994, -0.611490396853684, 0.8728195269417794, 1.1119825151130074, -0.44649352495616335, -2.1302422295211896, -0.6646155256444778, 2.9120607443578144, -1.0406672054793464, -0.08572645032778606, 1.1183579559084624, -1.2679375530094446, -0.312668487882268, 0.7741558589730516, 1.438325549651884, -0.6028098133563808, 0.5363170404471953, 1.0025669248347935, 1.034482258397621, -0.9012832390065658, 0.01625782018917321, -0.05697753087714827, -1.962250462563809, -0.09511969700294826, -0.5212927246361136, -0.19271073664235117, 0.6522786099618352, 0.7233465598443329, 0.4135433974152866, 0.2972743980198961, -0.2962616976278354, -1.202462666644809, -2.4485003176214972, -0.49931679720991967, -0.17743708883050308, -0.27200041566025146, 2.232185492609086, -1.1915208196126634, 0.12211082835918208, -1.0236397093592904, 0.6101754370716014, 1.2421884492327677, 0.612443418320686, -0.9804292581436762, 1.4513030283449906, -0.410865560172007, 1.740066692415094, -0.4337078612284466, -1.0541861734139086, 0.9199408417409144, -1.2639380028652998, -1.53203974879558, -1.3061644071784606, -0.28143565074443067, -0.7058795518329349, 1.127605965356394, 1.8050431338228792, 0.6170411467568281, -0.52402964236302, -2.0044167041371974, -0.2524472509931135, -0.5915848903817451, 0.20038575748607804, 0.1642017034441748, -0.396376708945362, -0.18330508771428428, 0.8578955956774972, -0.05298420031819552, -0.8116540461777918, -0.4485027137073223, -0.14190538877669653, 0.5282262433769273, 1.2432945333925902, -1.0906627628290282, 0.16665040322926422], [-0.24656716397218606, 0.9733122992914827, 0.4075803048244973, 0.6518255843194622, 0.7461376677256056, 0.310118856397858, 0.2544394093793033, 0.39386604588316815, -0.7485257488911363, 0.36141593971322117, 0.8991702647513765, -1.1187450979259623, -0.12426418942856055, 0.7188274263158968, 1.9484244377407802, 0.5657127810473938, 0.8546995151240411, 0.46942606089499456, -0.7622766374073653, 2.009179062208876, 1.174029312201723, 0.5328075282116004, 0.7154540009629259, 0.3011662927565606, 1.514533325724216, -1.0663730633601998, -0.45373246260650474, -1.053076887332379, -0.002642749699725229, 0.7273234985111059, 1.2176700979714237, -0.40415827088340306, 1.3279218554180394, -0.3098989719742381, 1.8293572514269274, 0.6060502281108991, 0.29744273548296185, 0.8118718084314724, -0.013254274994806232, 0.8825101192677658, 1.9662261087306125, 1.6726783147981774, 0.09955100678332392, -0.45756847906218234, 0.28862637387239076, 1.8051934730009778, 0.7714458676988053, 0.02043376916706374, -0.44791843049150826, 0.565906943338972, 2.1511691590544566, 0.33735500691597076, 0.285376800765539, -0.28229023415618326, -1.1043276575810292, -0.2601109993687138, 0.8841247670542024, -0.9125690354186454, 2.231027955490269, 1.0827721559156924, 0.529116870155702, 0.7884053849565864, 0.7849201482455439, 0.6801182523590316, -0.8553211516918856, -0.24451636942390453, 0.14289705685253654, 0.8529804021280132, -2.382771162565543, 0.21945856297221536, 1.8143815954401474, -0.5595881112938497, 1.3446180880409506, 0.4040626499162712, 0.11300673067525072, 1.708769405518005, 0.7431377151021032, 0.7678023352742176, 1.158660002940195, 0.22105726702656017, 0.47778031508666746, -1.0146473825313274, -0.09098438454323596, 0.12770804928404447, -0.26928716618866727, 1.8873469876119093, 1.050750685364734, 0.22579058069720676, 0.5866061034604743, 1.232526571514593, -0.8299091425913289, -0.37664524768304897, 0.3405520638524522, -0.3981139513561905, 0.7423235697686249, -0.08933065721728033, -0.1786173349476246, -0.5922670698916611, -0.47940414388204033, 0.9563093525962926, 0.5734497258674002, 0.5606869664982915, -0.7585415728890924, 0.10244467675757586, 0.6510492479090073, -0.1375359645592738, 0.6520989309823411, 0.06604322165032181, 1.2638115159858427, 2.221531949819398, 0.467027548684155, 1.393494991481992, 0.8652505223642223, -0.8854487051072585, 0.16847435812038894, 0.1927103997950068, 0.08672457138417448, 1.0726936157817788, 0.8078318829101242, -0.6280692776207271, 0.06646111404979835, -0.9137427012292082, -0.3267554297838853, 3.3785674847419362, -0.43680181849224115, 0.3809489508884215, -0.07030707063070712, -0.5514120782475203, -0.664069630630304, -1.5791215060294848, 0.047028375365169905, 0.6375305706670708, -0.8471093119695519, 0.06111116914439365, 1.3915602899798962, 0.8276735091178062, 0.5439250314028548, -0.843225854268167, -0.8311516324906896, 0.7755767280489414, -1.0806235853121133, -0.8922849601632401, 0.6363050725637295, -0.40540424734423214, -1.4884429074465129, 1.006812912376681, -2.4841141878415818, -0.3139504298856575, -0.062201563889385504, -0.05279239706876517, 0.3313009606136553, -1.397714838315816, -0.8501009262067618, -0.04072692941427477, 0.40513521166048433, 1.9774753802726392, 1.852254290051665, -0.37253065833095833, -0.15067792178427483, 0.7362913400055915, 2.4330455786761314, -0.8536769924561225, 1.0484164969097778, -1.1133271632436232, 0.44166563206291276, 0.4463556743697114, -0.7323629143408596, -0.5163168035965439, 0.2747528774271889, 0.6305636848063857, 0.5002645191236806, 0.9922144097223333, 0.0986345482468558, 1.3280571176239901, 0.521170843519765, -0.1376276162241666, 0.2693182959701821, -0.33390345763950935, 0.2574909013814278, 0.5247079672914112, 0.5611808078169607, -1.2234891291130403, 2.6977952159047653, 0.03706436582181892, 0.5497771426128183, -0.5806767576065223, -0.9628175184043376, 0.9451201483544501, 0.3640687206631108, 0.5362758550306669, 0.2670562135342591, 0.12714624891566828, -0.4394978407444197, -0.2526862801347409, 0.1839307978533327, 0.42261784468319, -0.44472534126196295, -0.209394684454189, 0.21968800458463617, -0.50210647543897, 0.4834617829118335, 0.8949434442135293, -2.250037066659173, 0.4524922812595508, -1.253832354591547, -0.05318326887385333, 1.0318926577430902, 0.7165066026929438, 0.22392156801001978, 0.7701553736382946, -0.12838816560032304, 0.527165570740439, -0.519539504038359, 0.6868591762537432, 2.923521425999569, 0.30655216954219144, 0.8380928768299581, 3.254721314454171, 0.0893592431382081, 0.2813753484373885, 1.0294370620873023, -0.8631846343330186, 1.5399009695169426, -0.28751222506395196, -0.9281741912982885, -1.4737844668378917, -0.17457739273770015, 1.0771787214082202, -0.13978712393128087, -1.0488031514760117, -0.6878964320066093, -0.4941769448149188, -1.6776597213464521, 0.4753518441313827, 0.41824150869283905, 0.23931528368674196, 1.564969316244347, 0.2923738038216779, 1.7771874320523688, -0.24795286966148422, 1.1129057084763776, 1.9402057491397433, 0.18249970365862214, -0.2294074160544509, 0.4480172238795835, -1.6659241835475729, -1.142227677781364, -0.16163359388917067, 0.4491819462925604, -0.7492667123057724, 0.06514351857472994, 0.13928851839371514, 0.6558210869234027, 0.20890044724347148, -0.7739380253022348, -0.37944668678330307, -0.09276780383519631, -2.7430173613410216, -0.14497507328947645, 0.3237663485756786, 1.16493282210534, -0.09228602966965598, 1.2443647997884546, 0.06212871573818226, -0.65233187449517, -1.1731693907336458, 0.20780550979339404, -0.9218171811746099, 1.3186492622149575, 0.21737409874672228, -0.5474299102968553, 1.2528698945348655, -2.833484450142604, -0.7021186618287756, 0.4238050415337808, 1.7130708903042813, 0.1697235141156819, -0.8361613408589529, 0.15673135850222805, 0.3791672326374293, 0.1959704169420851, 1.229614209204641, -1.3889364838274771, 1.0696964485036016, -0.780390163608999, -0.19547175424342464, 0.19298297597550293, -0.09959533856314862, 1.1226162863481153], [0.24039694670690984, 0.47112337152935546, 0.4957081780111152, -0.3289512622409523, 1.1921701993403069, 0.9741172756359469, -0.006597423756805427, -1.2114614850976877, 0.10159039497398294, -0.1494316343814923, 0.34239510372993015, -0.5210000943880331, 1.110283369072021, 0.9513406293027021, -0.9910869154090892, -0.37937392080822147, -0.7946260191570418, 0.424387499322663, -0.3895208646054001, -0.18522422889456627, 0.48810650394597027, 2.571627941281419, -0.3472182298836392, -0.0015712184696546078, -2.510643041276843, -0.2724457116720193, -0.3430617681936448, 1.0711590538981215, 0.15388489342197392, -0.7380978644977446, 1.475863291500451, -2.0345782052956425, 0.34013629307296755, -1.7923933032102441, 0.6041526739401996, -1.691307864318749, -0.6681418363835501, 0.6587344058773557, 0.7891290291800659, -1.2992349227063407, -0.5924935143289561, -2.108727153784106, -0.19935731031033627, 0.3485819708065885, 0.5488408789586159, 1.9929760263838403, 0.3355725907760313, -0.47327920363416437, -0.9939571999098668, 0.519131632582178, -0.9290280988332262, -0.6680840242072483, -1.96049844976023, -1.6873448238036217, 1.2979499183845484, 1.6207585451772888, 0.7814690697251134, 0.42954302020946045, 1.6460918185140443, 0.29872235736430225, -2.163503143843972, -0.9901002083814533, 1.0035012173133597, -0.826427452453, -0.38454882995519885, 0.2923591303018825, -0.3704438936088269, 1.030695906610572, -0.258955938014234, -1.492130017122887, -0.5157590947139524, -0.32955887400995093, 2.2841442218418035, 4.107159760107355, 1.1552243995187006, 1.9475442679907835, 1.6122637945711513, 0.34269042602578664, 0.3195120479151519, -0.042474386995287425, -0.2279413520978498, 0.07174926613340635, 2.7798719338002638, 1.1854432150484104, 0.6972434069314806, 0.6411071446761338, -0.3012582001937089, 1.0283157500051379, -1.7933959091194143, -2.760734291713324, -1.554159516835412, -2.0742826070556584, 0.02756446576479456, -0.4041923319558519, -0.45766469219487116, 0.4737352509005022, -1.0303049798522765, 1.778840182097468, -1.2640066020343153, -1.986236128487898, -0.714980383574105, -0.5753593993416128, 0.6065582218957458, 0.184854085098904, -0.7280326544186404, -2.1716790405426845, -2.3027655797564432, -0.2269726012440343, -0.0637467642927321, -0.02733246929491394, 0.6602549542912173, 0.642446404501574, 0.9572901420020797, 0.8093839862436216, 0.795785371507423, -1.07503236335019, 0.7542232022778895, -0.6703647808849937, -1.2765744185728356, -0.27446585514638105, 0.24870945038530815, 0.6425582223793851, -1.7221477350891314, 0.03263654644622719, 0.1872746430685139, 0.8066715936962084, -0.37317846719429876, 0.3264579080454383, 2.313898659038352, 1.4685595381122383, 1.7771664710038098, 0.4148958370964566, -0.7221323476794996, 0.14491623064670092, -0.8351475911073629, -1.3443028360316096, -0.027202977047546525, -0.544509365245724, 1.3421822693064662, -0.9291290515824586, -0.20724768047244962, 1.6782069632752972, 0.21002957207751705, 0.23399309342074648, -0.1091876960321093, 1.2943609399660603, -0.16745571863219003, 0.12634961210043713, 2.107518355126751, 0.32236698089359705, 1.1309095071230975, -0.25028899329969956, -2.4957982272102806, -0.6634474522850863, 1.0459547195247043, 0.6884697903159227, -0.14222481176575905, -0.7458552357732845, -0.29917175222430037, -1.102229507691502, -1.062003778505046, -1.1611361019040818, 1.4450990570059603, 0.30917297457068793, -0.13625804246768541, -0.13711848151754957, 0.32463436699992415, 1.1824582645105237, 0.8841551438289229, -0.5976214947306054, 0.18003784511915719, 0.037807948902452156, -0.20713435461699178, -0.09709139404933281, 0.8776479009669541, -0.02165408466708059, -0.03746481489736404, -0.5661753575426108, -0.06359213298342105, 2.1614662848409174, 0.30513315308770983, -1.5642269692164217, -1.7335837996267256, 0.5748369298812427, 1.7563885694307817, 0.4384522714007172, 1.151869560017065, 0.5616399968593963, 0.9043801512250719, 1.6899753838397822, 1.6896171264371125, 1.8950472249018049, 0.24906258792597724, 1.1011049173394427, 1.1035834585583137, 0.18532622197089021, -0.27451229142168554, -1.3012477928683297, 0.4201377632756695, -0.1607995939160576, 0.8021198851317882, -0.37733066158568423, -0.41247282453907447, -0.8765704999084293, -0.14380305543310123, -0.5998126485897263, 1.51303313126448, 1.8319116445261272, 0.6788778620195033, 0.3583040889280782, 0.8679668689852473, -0.5487904661301394, -0.8437340618440602, -1.3518538069574813, -0.2833134581259567, 0.5074014853901613, -0.06252529538904758, 0.11159342839335491, -0.389369194689072, -1.0694906349005526, -0.15682547848149764, -0.06933763381735268, -1.5416154813461074, -0.17366301101897033, 2.358711435403724, 2.9850468235509755, 0.15210351723137858, 1.1594791101721582, -0.023811490797901257, -0.2843171026758227, 1.0135057888098846, 0.3647965494975374, 1.8487619125001071, -0.36056456962314626, 2.366315699570997, 0.556987558858478, -0.8545987808416128, 0.5243548586980236, 0.6285102706391408, -0.32215276212549065, 0.856225689296847, 0.7643091552953141, -2.6614146252338906, 0.1362177593756277, 1.1579486200365656, -0.1958761580395719, -1.148223779712317, -0.03625406814783133, -0.1969971086990659, 0.24453389870230938, 0.2741166903296388, 1.6480065824559487, 2.250337589181608, 0.32812148919365236, -0.6449625616674051, 0.8899007401408441, -0.09907636238446811, 0.26971672236373767, 0.5348155336461954, 0.7204301186331658, -1.0417299354660217, -0.7962015201867642, 0.06983110822390814, -0.03114788270979844, 0.8680188443434491, 0.3753975393522183, 1.200455740952816, 0.5663794117212066, -0.596033562464098, 0.3617199212049872, -0.23673140114681906, 0.3627882725331666, 0.35311329613606496, -2.1473356598305067, 0.3744303125394883, 2.972958905178779, -0.013530291580191207, 0.9425311067931502, 0.1681145254448071, -1.2164932198581082, 1.296589995907723, 0.986880703039079, -0.5088143058385222, 0.4123466735035185, -0.2970966487749432, 1.6157081610703161, 0.06674261937494433, 1.2913736809764336, -1.250665462176094], [-0.42062626662587194, -0.8228330715275096, -0.41641325573739146, 0.10219523761590488, 0.3026490698096856, 1.0630705173566564, 0.6307556127460415, -0.25278654519439786, 0.3692734156932639, -0.7361020608811921, -0.719881535295515, -0.5730289764155698, -0.5329237310800334, 0.3440164641893496, 0.3838912065346662, 0.7198349706346268, -1.7562890506053352, 0.038952265178731224, -0.46153149457770626, 0.7815625940976555, 0.4036536349150299, 0.441890043438339, 0.09138227904673236, 0.15883575867793784, -0.7234141377815787, 0.15321843165752155, -0.20377091637478634, -0.8694711902909817, -0.9162871510434436, -0.019598881784180715, 1.8167275730177914, -0.5774991694506307, 0.4545088369185198, 0.5776930064503776, -0.4875793034060816, -0.43687207223951147, 1.0179903089857059, 1.1454003702831594, -0.13075609769605584, 0.264311552158094, 0.8295051742725252, 1.2311494575733015, 0.4411528512520548, 0.4781463506166153, -1.6111477622147772, -0.7954483121306891, -1.3628257448364849, 0.6810769520380819, 1.6332049068660777, 1.1049666678160739, -1.4999737114947231, -0.6139143765609169, -0.31408216128332, 0.4250342453863903, 0.6785915320042257, 0.5106089879214408, 0.5741561104112293, 1.0882356365710142, 0.6909697499870964, 1.065682022220368, 0.6714916976296057, -1.6766069496323763, -0.9946398495867397, -0.03789273024859589, -1.1786850522416372, 0.5204488734575491, -1.3637590659086012, 0.8262061183715521, 0.35081344637494366, -0.12408018899664258, 1.1272194299910852, 1.106011703267753, 0.6110154969189335, 0.11108462469024506, 0.8660541442534272, -0.4170479552586996, 0.7208232343411312, -0.9407080728118141, -1.3257385481882553, -0.9106479552337955, 0.1433494093400971, -1.3614873142833315, -0.007211609882351688, -0.763143104730933, 1.5122445833209355, -0.17148965565988694, -0.04017879182067363, -2.942271427290161, 0.6558631164156237, -0.22590191264222856, -0.3791024359615956, -0.9275325288330755, -0.7832613157131503, -0.32570606591038465, -0.8957283027979539, -2.5648195075875755, -1.427355877228332, -1.6016941023699538, 1.2995739802403319, -0.2679613819031912, -0.4594942133218525, 0.9036856591099018, -0.38579716017006305, -0.9303191548073063, 0.33861753286475504, -0.3824928420900295, -0.21084378890500213, -0.41797193708640495, -0.6012400468777879, -2.0541347728798245, -1.9820039954235493, -2.328145182997778, -0.9500826393260823, -0.6210964903175751, -0.08546387445409194, 0.37456050500164884, 0.47226234232592856, -2.3272977657832685, 0.06571692335948576, -0.9312134667653091, -1.9714032767743297, -0.2110303855336344, -0.647132200731925, -1.0661345429943443, 0.16972934869772952, 1.0314678947588316, 0.3823889974044515, 1.1397932555040533, 1.199829011413904, 2.1473164225922874, 0.1944868655634165, 0.39532525617096115, 0.5895581517322269, -0.3820842035943803, 1.360030380166218, 0.9722098753604874, -0.8594725360655793, -0.9474434360022136, -0.35311184599149126, 0.010144854622336476, -1.161486165513035, 0.9205847321967129, 1.542360408498956, 1.1253601531053303, 0.8623395296545903, 0.7716590962481137, 1.6090654428720264, 1.2168974636902727, 0.7464229655735902, 2.16201862397151, 0.49888575771144145, 0.11035245189010646, 0.7106979263905966, 0.8488290330333361, -1.0019862900658807, -0.7037004989072178, -1.038385890039428, -0.7739198289270696, 1.6393966590475926, 0.6601213077985456, -0.05428805596986165, 0.3697343159807228, 0.8541003135828754, 2.1630813902270356, 0.5167723626271292, 1.7042437503476147, -0.08391608373443654, -0.11988451146442773, 0.7519091079151042, 0.2795500347854141, -0.8574899511371522, -0.719171833433207, 0.4443551735597084, -1.5537913413476263, 0.4493039292947369, 0.4743370516949102, 0.02554923764179545, -0.3805276249355909, -0.509191396471719, -0.5650491768569638, 0.7236770538550837, -0.05708279192500365, 0.20514818715309166, 0.5580893390740099, -1.138771399619161, -0.8539002797590151, -0.09707475666325663, -0.09574906603673025, 0.11192476924435751, -0.1059659222898148, 0.23051505955482235, 0.3123787912363149, -1.285749279423231, -1.4344935912211274, -0.5510618059286391, -1.3703637432414795, 1.265014024713518, -0.29066927852666546, 0.7193224679109304, -0.3254965548421715, 1.904022023897002, -0.18964254360719507, -1.8917138124385344, -0.9958967432146076, -0.025909036583622463, -0.6247780523624107, -0.5118032276071258, -0.3227259902209945, 1.322115271442855, 0.7394887874565284, -1.0703000623878447, -0.15191154141648877, -0.8816008868624682, 0.2014204345066801, 0.26013279563828173, 0.763708088474408, -0.5042811992019409, 0.6060558426567427, 0.45326187767605897, 1.2154850634259409, -1.828898972747017, 0.10598558697432887, -0.06497476641805305, 0.09269959606349996, -0.8305843952166244, -0.7749886347372085, -0.7498406890565754, 0.7595261624454122, 0.0878676354814278, -0.3766551570755608, 0.4110355691908839, 0.07445382164578469, -1.555858544808245, 0.5272297861578759, -1.648096548869707, -0.37697939555282095, -0.3760920764241589, -0.40236043469276656, -1.5660802280354094, -1.5198751648188762, 0.9698031813277196, 0.8196193692457969, 1.245389769256163, 2.300461460197651, 3.122672916809903, 3.1086907597491824, 3.68523426039053, 1.287931627538523, 1.1314801850701763, 0.0712391458980778, 0.8077884646143902, -1.3743821954522508, -1.269240713480722, -1.058812645577793, -0.4316367569454343, 0.9755106509466481, -1.5740621408676103, 1.583473373818335, 1.2930738894676004, 1.0726467629737053, -0.6652059340393734, 1.9032568285706823, 0.7168254372306647, 2.8795012748607505, 1.2526774208263758, 0.8512461721893465, 0.4860982831863454, 1.0224341288799559, -1.001306672104062, -0.9962646205749468, 0.8711104665951612, -1.2125791019773673, 0.21198582315246306, 1.130169452121836, -0.2633083965031971, 1.239942035646851, 1.243147235748343, 0.11230775549372542, -0.36457560400119543, 1.133591816336825, 1.0344675785457713, 0.28604258747987127, 0.19801872837055895, 0.853120633041998, -0.6968654257855371, -1.4005722989981257, 0.1176650063233358, 1.2363730147637215, -1.3467514943150756], [0.6445343911319819, -0.3172805089315483, 0.4816050887229965, 1.9110568061691584, 2.4339438438872913, 1.5536353543760804, 1.7330665785350594, 1.7403670927487154, 1.657971273062709, 0.32460668012912025, -1.275447904507593, 0.31485588263495606, 0.01780513760334955, -0.1426330924821043, -0.3690254515528925, -0.4091059779315129, 1.1903262464486224, -0.268338107223929, -0.2039154807652715, 0.6579308290087492, 2.0614612252664335, 2.421421150333403, 2.34124788409319, 2.204017835857584, 1.713261119134602, 1.8672819655202861, 0.6872397696526725, -0.27823850742611206, -0.7050548147336025, 1.053004352279718, -1.874632262038959, -1.3510047760679886, -0.28034081274884054, -0.2002767827779146, -0.4162202720072233, -1.018043218635096, 0.24905275219857145, 2.001717170365306, 1.8974941815353943, 2.6908401878934036, 1.3104095580389692, 0.12196868447371081, 0.44144263976773185, 1.7481773927003974, 0.20774986228834652, 0.21649259444878213, -0.9385780609916543, 0.11637281950358068, 0.09200997718025139, 2.424391245079435, -0.757027149064913, 0.19347712714335777, -0.003408363598785634, 0.10541800557049416, 0.43969205275081963, -1.1683910110105693, -0.870034460449394, -0.5255762190953508, -1.0947550571292797, -1.1905975046976274, 1.2062731357253804, 0.3430221751152954, 0.3712278960718433, -0.3423704817467799, -0.2053190578131617, -0.3343095472629559, 0.6048157837352534, 0.012402237212591151, 0.14071664458977154, 0.01955286699619654, 0.044734922354625825, -1.0618518600368874, -1.0783196197167115, -1.165676180302419, -1.0110078583812356, -0.39218372330807644, 0.21553823578730436, 0.6552709584917353, -0.4414180977744246, 0.9734675600251996, -0.6518376940198437, -1.2631937348719908, 0.9072750958974313, 0.6977073567609832, -0.37413050337710096, 0.8424247307094722, 0.02936364405375122, 1.6891182637518805, 0.9798774947896116, -0.3020486885205207, -0.7110713481736838, 0.8443547722641151, -1.2020735836853664, -0.36434928456051263, -1.4717551277991736, -1.5014217066602034, -0.5506127821707285, 0.9813939074304909, -1.393363636966261, -1.177017842900094, 0.798482533246639, 1.7597907594733118, 1.433522905728505, 0.5052675054595838, 0.7425015706707793, 0.3724186700211556, -0.2108375474879658, -0.5951419536373241, -0.3594515998354683, -0.15572341342567514, 1.8343699184389037, 0.5544288181996293, 1.9312994967454509, -0.3832524206134589, 0.8594542117965707, 0.834238796039819, 1.4152020479657963, -0.23710464092818803, -2.2225222256226975, 0.3095848082002917, 0.8459831865431942, -0.4888949863621404, -0.13205547689131422, 0.40250112702417196, 0.8666062002715446, -0.6527092624136595, -1.3845386676301035, 0.09512177490861262, -0.6675444830800689, -0.006916946457693623, 0.3670635173571995, 0.09439913798866136, -0.3384203158257359, -1.5686511265185863, 0.9170247988555552, 1.0824284199124155, 0.7651720998102621, 0.8612140023736589, -0.21337340918620415, -1.5928331837463332, -1.8960304806723443, -1.0873364019695146, -0.9498050712871535, -3.0558309168164266, -2.993350489402837, -1.7165621181929411, -1.0556775345560048, -0.6061613715314222, -1.075804839495326, -0.9507417512014222, -0.10024960557584878, 1.0145460406955755, -1.0152103219218258, 0.5986618647686749, -0.018230579891027478, 0.06357168701850723, -1.1993293314124236, -0.7009874523853469, 0.07539332844932284, -1.630127949857128, -3.0426279208350664, -3.9200884344299, -1.9278186091855776, -1.376429607479514, -0.8315976676911011, -0.8022040994406955, -0.8210158666454942, -0.8213736811283588, -0.8171303904587169, -2.9983722984751724, 0.40272341108593, -0.7026384911918977, -0.5110464230465375, -0.5818287917409252, 0.1596870881639315, 0.13470746467910344, -0.6970355794433716, -2.3405523127489194, -0.9508592576572988, -0.22452097165074164, -0.6732949932962925, -0.6068210388426126, 0.11455499970941756, 1.3079113114920267, -0.40674285490730255, -0.22266392539419588, 0.9435960947663495, -1.2664395488444538, -1.7164179251060274, -0.45816547295925714, 0.2881637358998968, -0.7105275115186134, 0.14434402410203034, 1.0158051287768173, 0.022233055233817852, -0.560362050047919, -1.233712561295679, 0.011707144487756454, -1.1089344993609258, -0.6931752452908927, -0.6606567479770737, -1.0961913940510128, -0.24543691887151026, -0.41985022228045116, 0.06485478510725166, -0.5918438460663826, 0.7863709684426133, 0.9509439585753445, 0.12249335365678983, -0.8168008940050668, 0.18162322723760277, -0.12882700607220748, 1.2476267887160106, -1.2892690462723235, -0.030100330971945803, -1.3885608967869068, -0.7556651589839072, 0.6942876024277653, 0.21562428730644773, 0.8855966357681315, -1.613409955734688, -0.24079596152224095, 0.5049120499715378, -0.040817882851618664, 0.9607782630561311, -0.13567313800693412, -0.9771036045066621, 0.7278484444443405, 1.7628902179903003, 0.39746537488021566, -0.0780347266719321, -0.10127259923412184, -1.9368828858681293, 0.24238452727787949, 1.417165003216441, -0.11215445153655469, 0.16737197709809873, 0.470218116413056, -0.7339703295333256, -1.0934105594933963, 1.1293407172975507, 1.3190053781282958, -0.3107751611995183, -0.8504131484802491, 1.0520814963448173, 0.19310184194053828, 1.4691839569284182, 2.294867616077751, -0.47944126430794254, 1.3547514970739252, 0.6918453296727175, 0.4859039931926601, -0.046673598489654536, -1.9155088368310849, -1.093426500381367, 0.48211542586320116, -0.046364133054114486, 1.2261417242100512, 0.5747859785605288, -0.4543481264757239, -2.8275989043138616, 0.8558874459536644, 0.6667004014082312, -0.8863661404153403, -0.10323242574877249, 0.46372828870304095, 0.8918896261765363, -0.08607212383889518, -0.39810188061220486, -1.2312104313806136, -0.005276217898698886, -0.5954965012527468, -0.12236064271505419, -0.817382179379376, 1.9534342587566336, 0.445513258664883, 0.040712010471420354, 0.06021690168685059, -0.3218456958407858, 0.6559235723846065, -0.20613165339333156, -0.9062064709938813, 0.45695000450164736, 1.6178865906428515, 1.1402648129362618, -1.3461857626340419, 2.128621395865171, 0.9384750025771836, -0.5644752544563427], [1.1316092575495318, 0.9774524129582325, -1.1682425409275594, 1.7730329714222943, 1.2156521470143022, 0.8544329724787247, -0.6107759875126322, 0.1651366739952968, -0.53342242194068, 0.6658173338393937, -0.47740045848174467, -0.7800215930633319, -0.04123867097994829, -1.481670261365866, 0.7156345995513632, 0.36524206247101865, -0.8534513134077535, -0.04882034058829283, 0.6128388080138778, 0.45964867853914454, -0.9395034537176499, 0.2531182665752966, 0.39572365560875516, 0.48922696935385623, 0.37155881701795745, 0.5380705203602795, 1.748304087423449, -0.9002920390564566, 1.2150814531765366, -1.7119681968205174, -0.8811245235563634, 0.6605815366323513, -0.2754320665797498, -0.7343551757820627, 0.7175578300745363, 1.1171872714146125, -0.34943471714029606, 1.417453158672007, -0.028949165808494156, 1.3135894862520772, 0.6128343569289685, 0.4252506043287558, -0.2091922153783409, 0.1687401534856017, 1.123880557238094, -0.5162810982085546, -0.3048626729337629, 0.6530425034397397, -0.9032509087552137, -0.8429712085712563, -1.6273525270590186, 0.7590246920853443, -0.20145151534403044, 0.9869476258561, 0.060076585754622554, 0.40562824978506623, 1.6498619522865072, -2.0396309103611174, 1.040667758997989, 0.3141090510747929, -0.10562792596724743, 1.1958811837800642, -2.0385682479668823, 0.23814409166232273, 0.4214270888063746, -0.5951010683227774, -1.2419360717905272, 0.7747852305949997, 0.47728560841291745, 0.04438791991189726, 1.2202819596694419, -0.13449659948344161, -1.5717704647188, -0.48788455388268487, -0.44716950723703247, -1.0152073089645526, 1.140367243804365, 0.07365199137004992, 1.053029663846753, -0.85552224478732, -0.6612171977799783, 1.514741453119212, -1.178678403547436, 0.07394807851727511, -0.9468463534602324, -1.0916481631819137, 0.416581236981555, 1.3219941876339802, 0.43817121671617654, 0.13822711112440084, 0.522439056266901, 1.6391699927199805, -0.22142352653435401, -0.614918678957383, 0.36835677191300475, 0.10349558769499784, -0.46397182232492273, 0.417243358112635, 0.3002668576681302, -0.8111095925764451, -1.0463380269240783, -1.6004302246206912, 2.195957605229952, -1.1820959076678945, -1.0885966827518427, 1.153924728815629, 0.2570340197963773, 0.09926847964415292, 0.8756154343833769, 1.223081372751065, -0.12484822946950205, 1.0956749342588512, 0.8779540686357217, -0.7134847662977849, -0.725695361247611, 1.21503166209495, -0.3801442616576444, 1.0537907481282114, -0.2058226099763178, 0.6534615943615598, -0.6666024389819648, 0.1810650559945217, 1.3923941334842531, -0.2662332300262922, -0.47102248232542976, 0.16323087722761395, 0.1944641945801037, -0.4165668676770612, 1.1347582288203506, 0.4947893155617411, 0.6996890735869175, -1.7500209614295323, 0.8919743309113833, 0.6567507477684439, 1.3478350300137785, -0.21570185889178622, -1.0620260323350477, 0.49943876683821004, -0.7825789950095833, 0.21637394869910254, 1.177578563323708, -0.6160363733421738, 0.7387864662993568, 1.3437959255768894, 0.513900112857394, 1.6399519264667912, 1.7243683524921192, -1.256097825075398, 0.5493874444746301, -0.8039381186043686, -1.084417208913117, 0.8925572288612152, -1.3131718860270452, 1.1874489326841742, -0.557846921314475, 0.890500328313067, -0.5086756245829439, -0.47628843419807887, 1.2270710568392282, -0.7950355849042479, -0.6402878967616863, 2.2102607561246486, -1.0644605808113978, 0.2529004798651927, -0.8299266644323868, -0.48675564961839524, 0.5522549652035594, -1.3508023423842042, -0.6468412347895335, -0.7826398904184271, -0.4915561484685394, 1.3808553758050643, 1.5970330179117331, 1.4004660483046085, 1.3987806157527114, -0.5388856215268868, -0.11824458574680645, -0.13954955104676064, 1.418839477449548, -0.549397600313415, -0.5043804208628409, 0.7695040271408867, 1.275323757215884, 1.3917929708645052, 1.6530874180931714, -0.7514508142002292, -1.6300962764168194, -0.17748182679739455, 0.33520655815563954, 1.7750702302683754, -0.11444563697453082, 0.5648217034514391, -0.11699550227166156, 0.9924154150409614, -0.4105314179196303, 1.8902190766229767, -0.0962659680960232, -0.3802930107190624, 0.629057309371039, -1.0993143710452808, 1.3943485892907612, 0.8155184067004975, 1.605548643434668, -1.0185867519778022, 1.1534233112967722, 0.48042966840966395, -0.2588556197251117, -0.2418506353853763, 0.2743252172880513, 0.5035818719542773, 1.1671435243320751, -0.04401988879692794, -1.190630419047286, 2.6945679637776037, -0.15435313364656195, 1.6588897486078147, -0.392998774654814, -0.2721702658799725, -0.4518612110566215, -2.1516191032476857, -0.5450612431240455, -0.909648727147821, 1.0924315454069924, -1.9962688370800927, 0.10443493442970435, -0.14769336598205493, -1.0491615435955757, 1.5517028930831152, -0.10857636260221892, -0.5801862699057024, -2.0660208613122513, -0.8103210204097601, 0.8884401355364012, -1.1518493514494088, -0.19401316966525833, 1.0119756791572916, 0.21412551667046636, -0.7984649779356867, 0.913739590761056, 0.4590092251490704, 0.6900929948389661, 1.1677511402658038, 0.3173295180599825, -1.4350784909478271, 0.7939248038485666, -0.7578297426593047, 0.44399320197276304, 0.3583889170597015, 0.518632776269231, 0.603951436134049, 0.12052341189833563, 0.6877999123175208, -2.0033236499151807, 1.1125892279344027, -0.5605956340482036, 0.7836307140327923, -1.130968082196644, 1.1064617686646092, 0.9494152814173735, -0.39543108402664023, 1.1211242867636018, -0.6185012967711189, -0.6285350908613465, -0.6082408190733423, 0.9545567794840819, 0.18441747381204873, 0.944319595753777, 1.8118869693724322, -0.698439189531193, 0.8367456087088355, 0.4383723729922723, -0.42990728994760713, 0.1902872381142506, 1.0164721888366686, 1.5953712052960107, -0.07266320921950606, 1.1159776101715337, -0.33554203706751723, -0.45913207729989247, 0.3446586980979269, 0.31167232500161246, 1.3406988435988854, 0.7208077472509399, 0.10421877120240372, -1.9106732153266535, -0.06218312223004955, -1.1762693815948442, 0.5919009389399255, -2.1506383319505016], [0.2929889509057583, 0.05245936182075029, -0.7655218399151951, -1.6696253390744065, -0.4802968461487256, -0.010490654856868105, 0.36033529019617433, 0.22237931455905274, -0.01987359442872977, 0.5278414079149317, 0.5812213533552374, 0.3043110094998802, -0.36165566490420115, -1.4780633120080096, -1.1697873994765176, -0.03460962083394623, 1.9680880989709224, -0.3426311750328211, 0.23881030660247646, -0.5585593124748526, -1.5045165641184972, -1.1056371517971073, 0.027903446947857242, -0.43241341462740385, -0.1012668141932054, 0.8689925758157171, 0.9130266102837828, 0.059027942458243984, -0.4015740363418682, 2.100115254852501, -0.11729812910028521, -0.26375323006663015, 1.4827931572135225, 0.15814047801754827, 0.3286260872545729, 0.33090723898720686, -0.27958605077247495, -0.7262057618771648, 0.21080731270556508, -0.6817926359090575, -0.44430337625470256, -0.7514108361018796, 1.6037145814357299, 0.7827852185803541, 1.775484376679885, 1.0683359311123677, 0.2196176518868588, 0.5337261859604555, -1.9522439755437295, 0.25874601093966215, -0.5532419389685242, 0.5997794503001912, 1.510696658618439, 1.4670054819806413, -1.0936437162990202, -0.4279416995258848, -0.2624906043970793, -1.452204176180099, -1.4628305764057872, 1.7345250035952289, 0.9973294167910138, 0.8704609805734043, 0.8695236923200163, 0.46340001766920597, 0.24532730134494857, 0.6166406925663089, -0.5604169308849938, -0.18538760588595618, -0.48515034394069395, 1.2094882495354662, -1.1228182667294748, 0.40402233437866863, 0.7864491337596703, 0.845431582849383, -1.411615357630728, 0.32450489090033774, 1.0430276335956163, 1.722855745387332, -0.21712302485254756, -0.26146880852645343, 1.3885515953319845, 1.323385691917192, 0.33105024527053223, -1.0284097403885148, -0.5967743692678902, 1.6131378822652718, 1.4701718093158196, -0.21418555041486742, -0.14681693446547459, 1.2236242382383726, 0.38377572165165624, 1.0633270289167067, 2.2809624180597465, 0.7157392895777988, 1.6227541251901383, 1.2499984070093306, 1.2794250821549644, 0.48454110313852605, 1.4055739751413538, -1.064570980369105, 0.1331574265296301, -1.27945664287332, 1.5574532015522615, -0.15030561904717704, -0.6461118829276161, -2.351080670646349, 0.6502319698192056, 1.0207401891361567, 0.38016449968574706, 1.284454140914183, 2.0895166393283033, 1.9532431769896734, -0.6380128988434145, 1.125747405112238, 2.022057075589329, -0.6521295527115052, 0.9083005092418408, -0.8373365320951123, 0.7837469169369755, -1.0358645028898488, 1.2898642768777095, 0.2715106123475299, 0.08508388670212066, -0.7376776011047823, 0.6239320427048868, 0.7300066629527052, -0.9103040499395847, 1.2910741944069755, 0.7226829269394903, 0.5094367101562696, 0.9071481550963587, -1.7873778506044842, 0.6445787406817498, 1.8908265640455368, 1.2383157391175181, 0.4402598638959663, 0.2093531169289507, 0.7947202210609663, 0.6126828307632117, 1.4118315575495375, 1.1711693262368825, -0.9187466624770022, -0.8271335259074016, 0.3678901481949858, 0.17077824943746409, 0.1098849636666779, 2.322223744420838, 0.553585911713774, 2.2974237462100615, -1.92415753667586, 0.21695251159440718, -0.3305286047441912, -0.6918844873579575, 1.183595590828484, 1.4954936505554013, 0.9245314046117213, 2.4641344468964577, -0.8252851117118418, -0.6298255170842123, 0.5391828801464077, -0.2092509619574475, 1.1609100351844213, 0.9940931161741775, 0.770696022625095, -1.1232514270599665, -1.1420098873475544, -0.05007822720004465, -0.2059557633890251, 0.9299293949992027, 0.8180612017485325, 1.1971798522748032, 0.683130556195602, 1.3150961071503742, -0.4328092481140081, -0.4328557368736419, -1.1287733527802217, -0.39407537893286637, 0.5778017357316673, 0.16644783920936074, 1.6176601853071069, 0.9776499264770685, 1.9431658228959636, 0.1381056633464266, -0.44235340784581867, 0.29456754413728115, 0.4657012988821827, -1.842826113889208, 1.0367051984892939, -0.43078482362287074, 0.16033231025718778, -1.7892947120156266, -1.286860297458454, -0.18438650040087476, -0.3892277138418756, 0.46794240211211124, 0.015468286500906599, 1.323300956964959, 0.04263631242828096, 0.8393746619320527, 0.8010657666603859, 1.5171467704619201, -0.3647229186746545, 1.0150792743758112, 1.5267554027239518, 0.21832647271481975, 0.29211946553249296, 0.8392516442212073, -0.5585289873126168, -0.7006850637072312, -0.7412973347605329, -0.26970846183983577, 0.428479425769811, 0.4948839300729805, 1.8464169936547898, 0.5899747276364771, -0.29923169237405317, 1.3259046023024876, -0.4230531064174782, -0.381210212028892, 0.8660607781318732, 0.20158007753182441, -1.065016366727039, 0.8237510046942429, 0.7811143201537426, 0.019014016206452374, -0.9331759420084627, -0.7529251893307739, -0.03675944439093263, -0.30209137062866354, -0.1692823605138554, 0.39885202517111057, -0.3602889525834213, 0.5704121578076911, -1.1472237106824807, 0.18529214775107294, 0.49038488767010496, -3.4926061070381906, -0.5659120244980386, -0.7276671176432353, -0.19403619290035237, 0.06454786596945335, 1.6066690132250427, 0.04533641525500769, 0.3411642924925628, -0.4018171065142987, 2.041472792153956, -0.6300602822734748, -0.8827226569625228, -0.5685903432635063, -0.05096808017956284, 0.5834184862241789, -1.0406587914312373, 0.6695898290418315, -0.27672832027018834, 2.700296019588291, 1.4268826271820878, 1.288608798977062, 0.7199516928641491, -1.3532746603199368, 0.740734714567451, -1.0866555953401744, 0.6560923218829566, 0.4205794290726568, -0.31157297107355436, 0.24519562882928808, -0.702998972900555, 0.38505328992425675, -0.5966354480220333, 0.14232747729320908, -0.09780063243192197, 0.6288402991537676, 0.7185735997972089, 0.10436387811631351, 0.19814006903963272, 2.378612476018846, 0.32374930334065155, -1.2981958571339798, 1.0760117877955142, 1.5957090196263133, 1.2689556539327262, -0.8829908319205011, -0.20076737642073297, -0.7409496679934114, 0.5699287146767306, -0.6501962310185908, -0.9173949061125269, 1.244398818159349, 0.20602823587944696, 1.0458852023826881], [-0.1877717560960534, 0.9657477297998533, 0.21583410076937987, 1.4272314344147286, -1.6714101403822994, -1.0180391536962545, -1.522629431264215, 1.4142990300804597, -0.9371093930484984, 0.5294039478348612, 0.5115321638483017, 0.28927550122282253, 1.1005784301064419, 0.6735527650007207, -0.9603053097393434, 0.055972501062419217, 0.17130367753463283, -0.3569967199403992, 0.7826654981440619, -0.7433736805849136, -0.07291783976945157, -1.6039532477635183, -2.005002234576165, -1.3545801383719567, 0.9169246431631436, -0.5589880093546249, -0.4039164007468351, 0.5851013367271954, 1.801745911460746, 1.9795787399403488, -0.06853042976513078, -0.7344051098515278, -0.14868130803249285, -0.07330773313158637, -0.12463891799428217, -0.4148361348673689, -1.4255449273193281, -2.020010152004929, -0.11308191802016197, -0.9110980799633874, 0.21743304325706367, 0.02636725628249217, -1.2981200843492762, -0.8103052852852202, 1.7268219544717516, -0.8955949063758076, 0.41007143332869767, 1.53373852140406, -0.12868227318160008, -0.7147137639692177, -2.0119084419863094, 0.8246309603073361, 1.3042297822179751, -0.554744016746848, 0.4823119792919231, -0.22254909230712805, 2.6998063082824744, 2.0197892834728246, 1.98965213890676, 0.28073683979258635, 0.8944182831094334, 1.872129104575664, 0.25873678683192985, -1.1816269779494384, 0.29135213120509335, -1.0440274611307967, 1.1306810775343459, 0.7044030488618825, -0.16312464182479847, -0.05313842745226462, -0.9848619580697469, 1.644564593699411, 2.2972908933551173, 0.7155217289454561, 0.29964023349733204, 0.3936085620515715, -0.1585606495429648, 0.4773267847429546, 1.4286142831300952, -1.2639981466291357, 0.5220684729408782, 0.6630991856844477, 0.005673643256127882, 0.5768005475632855, 0.5771148277712163, -0.12201294967388476, -0.24944126161476124, -1.6670311888787663, 0.645848673867174, 0.9822416391879701, 1.5126442498060622, 0.6403356579881119, 0.652739972174483, -1.5299978205302407, -1.4613809060904184, -2.914859351952282, -2.667905992085269, -1.2524172543987362, -0.5114572874817047, -0.2821775506890346, -0.6735800734569376, -0.7288138922092386, 0.3271047717327876, -2.061548908286213, -1.2594398300294016, 0.11845873430387958, 0.04202462354312356, 0.49257250026740296, 0.18393748690330214, 0.02818296653672258, -1.0278123048167214, -1.099871599306479, -2.2977279040462193, 1.2863616731633443, 0.011900617977955712, 0.6366928853403064, -0.6233269792092178, 0.2508468202729353, -1.7368788059788318, -0.33099747777614436, -0.4858574585967101, -0.47262960684149763, -0.1000802650921622, -0.7209769498371793, 0.1768863067852921, -0.9279256472948688, -0.5596036077143342, -1.236029247272028, -0.059007118544691296, -0.6324927046170783, -0.13659910273852732, 0.7829030249746287, 0.6189356169690492, -0.5334046030533202, -0.1125370079024266, -0.3586541475589595, -0.5115450969389781, -0.7168663970043606, -1.0430064719254928, -0.300125012584615, -1.4528065474118275, -1.0947271358521706, -1.6516214933980873, -0.9730605026920991, -0.5946806410585438, -1.3683578068546605, -0.7618095430674122, 0.07972618544256817, -0.5232145610197031, -0.5581967827225878, 1.6459889061356336, -0.40786722513146656, -1.9653474881606459, -0.7151042348646246, -0.13723661637024623, -0.4966412088740997, -0.48536226834845375, -0.6145410225046546, -0.3837311513510833, 1.7064656309986974, -1.123369675541044, 0.1695036435347888, 0.7042302539882794, 0.5004189254392939, 0.5230724710648157, 0.2875951617134602, -0.6988578272513946, -0.5122090107488452, 1.1099909194986157, -0.1934780338688401, -0.11277418118502547, 1.055374662255346, -0.18190834692324767, -0.26692178302547576, -0.6865247336140291, -0.6219826289786994, 0.6418325025259877, 0.5594035068256646, 0.3373391836917512, -0.11220690346188317, -0.3402982922245483, 0.8688508398247471, -0.07210488484785017, -0.48865889328896184, 0.7086706655569524, -0.1448186089499377, 0.006003532630722911, 0.7127697782396344, 2.1534932904462765, 2.2283173008900965, 1.0085180711699984, 2.0680726125494413, 2.132350789707233, 1.804721245658499, 2.7340030053160094, 3.383421453428773, 1.0987543140428218, -0.6610665653029381, 0.3459801502886923, -0.2728949572730407, 0.03076930207006813, 0.41597243433215186, 0.6944771067405308, -0.3156283483112506, -0.13418331708648576, -0.6247533558727596, 4.295732970000813, 0.6824512045623369, -0.24695972548600711, 2.6350735468881457, 3.004109375386651, 0.6826530154876209, 0.6247089910126484, -0.28145877862259266, -1.0899321380954001, -2.7950244504762187, -0.8398108139897709, 0.20748403609998264, 0.19031096284324822, -0.16012475320578137, 1.1057699860119492, 0.8607243489923366, 0.972600601633064, 1.2871260468931538, -0.3023355347667255, 0.7376700049940457, 1.8452170930447978, 1.9577595062589885, 0.4334970414059537, -0.2813139004651873, -1.113424323607112, -2.5571837310537613, 0.1468915863168315, -1.6788423531968941, -0.38340609972298345, 0.47337348676578206, 0.638336477944361, -0.14439927900471708, 0.11393164184965655, -0.018937953771163734, -1.6801111192954963, 1.1747535481588762, 0.4611600671919087, 1.0371155477855294, -2.58985922868655, 0.2588767330863243, 1.3163706794834256, 0.07308314193624504, -1.2668030288204948, -1.4330922220133373, 2.002762264009853, 1.2392899232014674, 0.7055453913937626, 0.5281064840892065, -1.1672794226623977, 0.002152124506758184, -0.19187314907809233, 0.0034108941303570726, 1.9841551030276037, -0.15890988170302833, -0.014295377435014845, 0.2074645367171284, -1.5422754601632502, 0.19657075055309806, 1.666996718664246, 0.021194102221805226, -1.3505303371299362, -0.5293862121564035, -1.3260941888538358, -0.36632754905813214, 0.05958803086720399, 1.0403043501243976, -0.4141625024064901, -1.5397070541523143, 0.4097179904645961, -0.7271334764363773, 1.7132663486418773, 1.1913020555312364, 0.8612445990502117, -0.3229674760265451, -0.3825845169183162, -0.1273795850213826, 1.2980125807823262, -2.008395073596012, 0.1499137514957199, -0.29618565493059423, -1.7606445813621983, 0.061147360338986406, 1.9431015352047736], [-0.5622192391624503, 0.38256254346851803, -1.4905503654988985, -0.20988443648517507, -0.9569615107875555, 0.8719817352535079, 0.5942685195143111, 2.2773903581117705, 0.2107600268048295, 0.3482623672398901, -1.2763777750884817, -0.5837412336905352, -0.9192980121871418, -1.0340504428204302, -0.3639406588029548, 0.12384782331095677, 2.620800980424606, -0.2424047030828622, -0.7687059270441261, -1.6567350815911701, 0.5508260373347273, -1.009927977516597, 0.8040550045317055, -0.34941758574911475, 1.282869985583814, 1.4974286351372323, 1.9673031572616402, -1.2211457810476836, -0.026306612374212505, -0.3241967654633957, 0.8985663240266281, -0.9490184438854478, 1.1540942419159788, -1.562904207780646, -0.3207725569212374, -0.19381300222808662, -1.9408690013841585, -0.530021685020419, -2.2506087443943508, -0.18326534069144765, 0.9563320253771421, -0.38102732757837127, 0.03701505236326762, -0.2748684189531224, -0.909419526453234, -1.672424717621826, 1.605201771859839, 2.1235245754014316, 1.0472725758711872, -0.6035715667696023, 1.1452016766300008, 0.46765763777861463, -0.008551436789131646, -0.5007271476049483, 0.3557014845939403, 1.6183249860585718, 1.754344629889115, 2.3574268067734203, -0.5166450609480502, -1.9162745191945114, -1.8162385369685796, 2.2963624796013744, 0.31373639028479017, -0.15998729222624955, 1.232187869248118, -0.3425815964924614, 0.4918122315188294, 1.8275626112146828, -0.15740855102138274, 0.36209091445842884, 1.0715025374787095, 0.9031362814443668, 2.176673619626598, 0.7564839761861735, 2.2597925746233005, -0.2968670252434068, -0.8506770839547182, 0.3340311778838426, 0.5583195653509433, -0.395524661200408, 0.8446489551405755, 0.9458620704497214, -0.1495156558255795, 0.5092975817081039, -0.22834878080528265, 0.22740865472844943, -0.5263879271174686, 1.6983130990460398, 0.7815773852998479, 0.05500232785831924, 1.6136897529869214, 0.4726910652714478, -0.40375950321268267, -0.8528587719228293, -0.3100801905664485, 1.4056337757543287, 0.6716696860516804, 0.4547412941877139, 1.1240876013629686, -1.0250165855953495, -0.4728917046220385, -0.46589350335535823, 0.2289120856276585, 0.2524930700513854, -0.33474412281851396, -1.1015870366601328, -0.32818028537409627, 2.066753333289231, 0.03579108207737335, 0.6210006164373665, -1.8437396758951035, -1.9957920404816343, -1.1301960818341317, -0.39691493832252794, -0.7354580794705796, 0.6122102241245896, -0.5615540675845737, 1.0644841045255167, -1.7934493634443995, 0.14455992658681083, 0.47231595693619144, -0.04100637919493513, -0.5838610288439232, 0.07837513430543695, 1.9153633790589906, 2.603234628594604, 2.045740817367385, 0.02811284226052051, -1.103546300375731, -3.522383557305736, -1.264484193187315, -0.5686737024842718, 0.47669572723955445, 2.113927320635769, -0.04296049906639124, 0.184408023158455, 0.008789157986285922, 0.10927034346519479, 0.9423357120623245, 0.0639518311011202, 1.8689480256718225, 1.050154372674376, 2.5564118357661414, 2.4583219583672995, 0.7946549020360913, -1.4349926035392655, -1.31071643304156, 0.4987029151681501, -0.018106465726652515, 1.954150761758193, 0.5606296272074837, -0.4126246617585944, 0.2652803522351969, 1.0642350564341667, 0.9499138402780211, -0.5134165502309999, 1.304769378228799, 0.47473434230862804, 0.12837850722958014, 1.977057648460351, 0.5151982709445487, -2.280292634008668, -1.1109413457988315, -0.41120273842416527, 0.2554420905047867, 0.9144969590259859, -0.5197312766430688, 1.7540981257186192, -0.04761020202041638, 1.5080779033189862, 0.4464162239417433, -0.3010862810216923, 1.8109603496620101, 1.774472831718909, 0.45895007019027867, 0.5932087903130728, -1.1506980903433155, 0.28445571354555543, -1.1340738045610976, 0.5804715212388624, 0.3043379475371568, 0.29086880262033504, 0.2486996124338206, -0.24135602227625383, -0.5533692431151304, 0.5166722130357483, 0.7236552578008207, 0.5394556470855344, 0.27411081518339736, 1.092087296855542, -1.9941553343434462, -2.0747054976646893, -1.8784559692753602, -2.078239615205816, 1.23670092295924, -2.8263898680859256, -0.8296917861899893, 1.2194334375959333, 1.847246164673243, 1.054506037227217, -0.7216735977476536, -1.9214435086464892, 1.3659216921625201, -1.4503548010958254, 1.0760386242247535, 0.7576595892355656, 0.49100204496954963, -2.1055502136578124, -2.91180106743513, -1.266009114451769, -1.8593084191714826, -0.8284363775704269, -2.2409505215694305, -0.35669810977368477, 0.06402453945555928, 0.19857205168505848, 1.381638473052972, 0.485229001869541, 0.6949396802916492, -0.02848137876561344, -1.134484589539864, -0.09617440018721171, 0.19832048725698995, 0.0811576955146884, -1.45160434149259, -0.8665900209635751, -0.17513515146068914, 0.9946924045260946, -0.9485289614932075, -0.4771233945708744, 0.356334673804258, 0.5512623306050357, 1.0630783215424247, 0.8759979243508468, -2.065233775846205, 1.6788329727106994, 0.2078160754141973, -0.6571369184443292, 0.8785849546752101, -0.08561018830935148, 0.4703980611955397, -0.39451555665506, 0.4039119299497916, -0.22676274323940454, -0.6812113157638091, 0.07257898679128322, -0.6099314446645133, 0.9637887665311459, 0.23778925331084566, 0.2073229463090773, 2.0213484595303965, -0.30021481811693473, -1.1206157534974455, -0.291286228629348, 0.3166906649553063, -1.4596728735221354, 0.22189460573230896, -0.09341628356235869, -0.1467270074612134, 0.8453037885905832, -1.0818808752065274, 2.086618164723986, -1.17872809894296, 0.369320570694687, -0.045080045472921854, -0.6809489673730308, -0.6088548158456071, 1.409379575679547, -0.8076824670646668, -0.678636555818991, 1.3426122410044408, -1.5622938970388156, -0.5260525832741956, -1.2477384460955834, -0.32730139605121167, -0.03923094773630285, 0.1997156653942301, 0.19243998714004892, 0.10198399115059577, -0.9701679940448003, -0.5948835424401595, -0.06924198029173033, 0.2912868798732656, -0.4665692594045284, 0.39206495145875725, 0.2533427673163551, -0.9094083749769782, -0.28401886260048886, 1.4180086680545063], [-0.7382895493730613, 0.4139184055229963, -0.20379409652294278, 1.1399408546459948, -0.2701481105751785, 0.4573798624160497, 1.0292662192742223, 0.9505871337451527, -0.22179047118274048, -0.4892739233651016, -0.94976926667585, 1.0937620474361194, 0.2870851464257282, 0.47561010860028513, 0.4920470131035819, -1.7946642891674205, -1.3453267095716466, -0.5833856356286439, 0.4464609522461465, -1.5506647691218245, 0.8269118468023994, 0.9799274479311754, 0.9943947947052667, -0.007357670609629228, 1.2883868074235572, -0.5504656413533029, 0.7629584494043016, -0.9730045685513649, 0.7405676965729275, 0.628843755179654, 1.5767169403372225, 1.4897133162004847, -0.42458261817484133, -0.2856524158027162, -0.9129706216714204, 0.9581455583888026, -1.704041287979974, 1.9239904220708486, 2.4295339140359995, 1.2176804159243162, 0.23536354466226395, 0.5610188533301811, -0.7870659191582484, -0.06983656516147181, -0.3603920925174013, -0.6043039492675469, 1.1095170397270309, 0.9361349894275913, -0.20789722521648354, -0.4690675623861003, -0.5821376872163277, -2.1048250980539205, 0.19760881841838973, -1.2954967487506779, -0.6969909710071817, 0.9478533618282746, -1.1571293330889612, 0.3397110836963043, 0.004504951396564247, -1.6555738519032608, -0.18855299321315125, 2.122097063428813, 1.0878137702588895, 1.0028978585589645, -0.009672816920553658, -2.4239359790003143, -0.6326057795155575, -0.29545661121718847, -1.0093302619496716, 1.4834880824278958, -0.5090505186853056, -1.3497509534844663, -0.31403718775573153, -0.6163450608016581, -0.49590543597061315, -0.4936714984116892, -0.8315204484459768, -0.6734031335951699, 0.16465471855716843, 0.40038218562748434, -0.909029357593351, 0.6768458271987178, 0.9604974730121032, -0.5834984156251244, 1.212928209463257, -0.6150080631707809, -0.018590041999096935, 1.219943414500389, -0.652627837820176, -1.394347937445611, -0.16222056678413418, -2.1277117890513617, -1.2666728207974096, -0.9519598257144798, 0.40295578923735786, 0.6646236510522243, 0.29115768232637973, 1.5981820204601236, -0.0863262413334402, 0.8904026707557293, 0.05834660700056748, 0.7278498100835511, -1.1078203261873838, 2.0445485440069997, -0.13977033670307853, -0.5539221227862036, -0.10025252321894733, -1.3050421393895368, -2.8281327307588193, -0.6542216376707222, -0.5137650395997916, -0.08513637545459808, 0.3002083607082393, 0.3514073431454952, 0.10652120731069106, 0.6467848595236214, -0.9429482174443302, -1.3428549671670318, 0.8780343433170745, -0.7603435062809638, 1.7145259179418335, -1.737089264679892, -1.893388050142487, 0.35975293928390545, -0.47881890174442016, -0.21887846612613593, -0.7227237803743108, -0.19137696781555283, -0.08264169862065655, -1.374716680196862, 0.07403668338664986, 1.0742167261088547, -0.2694943174178604, 0.012840441223733689, -0.1721762128192062, -0.6819104787484334, -0.3145650128399029, 1.7369810504342147, -1.427650252420599, -0.24920301071232856, 2.1994880756324866, 1.3405551934501063, -0.24561605168240108, -0.4818748841364122, 0.7402347024642927, -0.3906928911303775, -0.14763944250006214, -1.5047446299812495, -0.599565857809463, -2.064483071839677, -0.860904222134798, 0.615446272695848, -0.006935941577343543, 0.40161366279304195, 0.7513726230532407, -0.10558640727639358, 0.045890764309572306, 1.1632800511055243, -0.23079365076314493, 0.7114100165433428, 1.0725965563453852, 1.375258266948782, 0.4715888795584127, -1.9893192285508667, -1.0803757965893, 0.848641729592781, 0.40689772944936126, 0.425364531981566, 0.7994567296400887, 0.704094654066662, 0.6473494922104875, 1.224773231815513, -1.117474056922629, -1.6063034439161203, -1.2470663499796708, -0.41291534755274895, 1.7094539935199164, 0.08725554907130882, -0.6129607116488573, -0.8552157244914869, -0.36953028903113433, 1.2231069521731255, 0.9446590330297795, 0.7473531340971549, 1.3432435220752548, 0.031947112005191375, 0.3153160760375525, -0.07655822873175824, 0.7277966132712913, -0.11922913889028447, -1.1521551982824036, 0.2524171580191789, 0.9960899048627666, 1.2499565581666787, 0.3053484105016683, -0.01912525076210364, -0.8156052735220145, -0.12241223746055674, -0.4511237081985774, 0.34999496097492866, 0.5889451084581251, 0.6661734697514913, 0.3412457323938669, 0.5836784432998408, -1.1508240823993348, 1.0878441692026728, -0.5927338685051196, -0.3743779362973027, -0.28608642343782514, 1.1582677999297655, 1.5198539168791103, 0.4784231278414312, 0.11484493592167712, 1.0310441311388578, 1.8750881405646909, 0.674535500397493, -0.41314060222646665, -0.23358614959094864, -0.5399841400016603, -1.599249203996914, 0.34058493001817225, -0.31367721955681255, -0.1420753334906187, -0.3810154514621451, -0.05514350778157217, 0.9559279619507844, 0.38204166217817453, -1.0941830830121815, -0.6428515061595693, 0.2610059357571296, -0.8419427581786435, 0.49647329863603124, -0.010868649703960452, 0.25313584434798975, -0.23435310502454373, 0.8528638107629618, 1.2615557283235739, -0.3351559538047014, 1.643597693481827, -2.098531548968141, 0.8682867370312155, 1.3949070279236275, 3.141314682650803, -1.1836996051443867, -1.7891441703158897, -2.7143039200481223, -0.9859791406139493, -1.7799500321082036, 0.305290230738685, 1.208509319314839, -0.14488037708045132, -0.3932351138631207, 0.2174818368773319, 0.8050607202323717, -0.7107247902373958, 1.0970199761724595, 0.10559007651298359, 0.1290592601163805, 0.1904581947275864, -1.0904726347616567, -0.2525272321678703, -3.5337660400850694, -2.1217357481843773, -1.8292937956998572, -2.6130425166551294, -2.1637935687065504, -0.3005295028454095, -0.7632994391193026, 0.12162144422994425, 0.563414348505, 0.3216703839285438, -1.6707873502668034, -0.6850107552683621, -0.12764437915500754, -0.558387515100618, -0.3794373112003764, -1.881004501783096, -0.4515543037390245, -0.5939344883805543, -1.4797806044355117, -0.6270859380422071, -0.052073372008120074, -0.027863543837673588, -0.46351756246214837, -0.037157440914440794, 0.7763560468531544, 1.1702840462839896, 0.9982909553576923, -0.49937949950169], [0.26116727152412794, 0.16417982810185192, -0.3024947268625223, 0.25935017414712375, 0.875821626122989, 0.1933618500689342, 0.6433695074917232, 0.4924100930338253, -0.8439681716483478, -1.90746435125663, -0.4939498047197772, -1.1637911717078506, 0.4907260334370129, 0.7544283233898332, -0.5679735864080221, -0.9357698885948588, -0.6721115830304758, 0.7771213117625962, -0.11301907037240301, -0.48953438018163803, -0.09152449279831233, 1.4503881119037862, 0.3978590541674899, 1.4784501824726644, 1.3858044821236952, 0.4614243290294518, 0.2642673955395848, -0.8478625820043684, -0.7455086740922279, -1.0972425183853263, -1.240093262320554, -0.7938560285663236, -0.051296287606730884, -0.15129051424478782, 0.007014579944343857, -0.5829416540731013, 0.17235127768589706, 0.10978297990004651, 1.558578393909525, 0.6596147493833394, 0.3184813480824478, 0.6549357768731037, -0.2655163559001077, -0.3992572945163845, 0.48997155583528734, -0.202744579709806, -0.06239956264403109, -0.8888275707623771, 0.41540685994705784, -1.0454518474357923, 0.5423067442295046, 0.12707846809410112, -0.21404418364858482, 2.0727615596331423, -0.4579078711977023, -0.2671955116121102, 0.595864580139873, -0.6951602387456128, -0.2250144631791386, -0.4236718607515067, -1.8154064292013175, 0.10427768697753007, -0.10275842511852314, 0.7355358063374166, 0.2607141943070552, -1.2879801715782504, 0.15524328070880994, -1.0560684868262145, -0.07753423512565484, -0.20723997820484583, 0.6576337930452111, 0.5978216554903812, -0.17662781949951317, 1.4108605077392484, -0.6426398395657327, 0.656182681564779, 2.6320788612826442, 2.4242541653468987, 1.069334205548011, 0.2236039157447592, 1.3920458091130274, -0.3629534695694116, 0.9296797147497445, -0.00017353704207122945, -0.2236306059750824, 0.09647490090085731, 0.5788486516657028, 0.43435016276609073, 1.1317768635612053, 0.16068185768337645, 0.8162323789447055, -0.32700012002706, 1.1827296404353853, 1.363575621498965, 1.6005936019553817, 1.2689414602052425, 1.3341424265969757, 0.7041212262382797, -0.7603827621761824, 1.3186390049434977, 0.917696065808866, -1.2271745627101154, -0.4255968917256129, 1.4695654043719217, 0.09626862241080167, 1.1689004029032382, 0.6232453839656452, -0.3734706691463485, -0.04028452697772981, 0.4950479636941143, 1.8664304452126772, 0.3944153308361913, 1.406381162808342, 2.29974830291798, 0.8330560601316769, -0.8715208476542664, -0.1926574713058019, 0.7277621807975795, -0.0526976932462556, 0.48677067711729294, 0.4521355506427723, 0.38379681208241884, 1.1072340129327738, 0.6030447842978809, -0.833100036365475, 0.2665016655267232, 0.12477153602142409, 0.17268480424850202, 0.9327859418834448, 1.2792095597162843, 2.7501031932061935, 0.33335616646208427, 0.14660575454491503, -1.695594413804218, 1.7160542992461947, -1.2196094587900952, 0.1698555569161456, -0.04710488491240024, 0.9254887454932065, 0.6859876984046843, 0.19535437539884662, 0.5704557658449265, 0.6182437957286491, -0.5328331979678359, 1.674230135679664, 0.5953057914500482, 0.7023141075672652, 0.13905288855491674, -0.660325172353278, 0.421999615322559, -0.49457728701462483, 1.2605358442910843, 1.2644811867031682, 0.28265991138446267, -0.642526763677847, 1.060653488362452, 1.4642057327976024, 0.784399708514653, 1.3006553090998878, 1.7328516243285428, 0.8136230235298586, -0.9750171542322374, -0.21238257315081174, -0.9109887914101428, -0.024336415305793377, 0.14172734134505738, -0.6377824354584959, -0.4475644464582023, 2.0891257901234432, -1.1260768624977469, 0.5941935392885881, 0.06072712579745835, -1.171292215442113, -0.5437556312335119, 0.7074022954042855, 0.10898139905338075, 1.1273763051067085, 0.5593604898389198, 1.4287325961817132, -0.14860355232792322, -0.1507871844949042, -1.1955852312312194, -0.15934555149394228, 0.6215703532384056, 0.3190741081015653, -0.32732541334823717, -0.07524131119713465, 0.7585345595343618, 0.7360164590830477, -0.21990922362806364, -2.0908780264524593, -1.7225942220445851, -2.2739173753645368, -0.7293887835497125, -1.762624135708539, -0.734195835146099, -0.3383286826347369, -1.5401548154880371, -0.8718662220654207, -1.2068759442822992, -0.7190089193199154, 1.7780573194855003, 0.06360428463423036, 1.0156455907003954, 1.13602054771978, 0.19985502591474572, -0.5748103136551627, -0.6464874815335169, -1.930016498735274, -1.537222802645496, -0.5053066921232705, -1.8616159491986852, -1.2959370035094067, -0.5424086156902874, -1.0783032698731607, -0.8691955475348732, -1.3048589039135032, 0.9679901309988855, 0.9534678048492615, 1.0862798838748178, 0.27228011271292835, -0.5473853162541141, 0.8399909089018758, -0.6678542271056581, -1.063865163271771, -1.2443140580705647, -0.5744663180725507, -0.5428782169035264, -1.298019922973974, -0.07012777384345281, -0.8014370598396179, 0.9565131710626937, 0.5963593477422645, 1.0290297618068345, -0.5957253813566067, -0.3348202470197535, 0.7301521025196995, 1.5526664401684585, 0.32011443150246677, 0.3133926104206602, -1.0470761213600124, -0.5392017567676889, 1.0946233579510174, 1.068505123519884, 2.236794263101186, 0.657204399412851, 0.6514871805994447, 0.4583988074692225, 0.5640528087276439, -0.559598922754454, -0.7193172718317974, -2.1653201478711224, 1.9671186451511913, 0.8392929080833673, -0.24048714010227312, 0.16885250142241853, 0.3998417547584904, -0.5700457849618557, -0.5969292598072699, 0.17847112480236443, 0.0938230489845018, 1.5820953451539221, 1.7223046098073267, 1.2032993600919635, 0.010065882988937562, 0.18100464323011964, 1.094992728061632, 1.5497929673754989, -0.12477483597179201, 0.13715602185160278, 0.5239369605166205, -1.4746741733599833, 1.1196092205984574, -0.03924951862496621, 1.1096478327412873, -0.21692483947458854, -1.4672950238342428, -0.3679517178942456, 1.4178690119514417, -1.614670697181294, 1.2432058352983835, -0.7439527142647409, -0.5473204612399877, 2.5858939082444334, 1.0649917245250475, -0.8683623681123532, 0.4387855210950365, -1.3965908953399775, -0.22248763446386433], [-0.14471277511886257, -0.5602731543611115, 0.07542616425884219, -0.26773640822613237, 0.8886079323316326, -0.6280632157396854, -0.5962967777202172, -0.5643171431323131, -0.36672643133790284, -1.1474236834162341, -0.6831251290506504, -0.6488165370994621, -0.24085067173872332, 0.7204239095555878, 0.5613769120240598, -0.2599757011171787, 1.0013468328856185, -1.080443256154254, -0.9469173103576588, -0.23701539583851414, -0.5935758449687969, -1.2194123105587922, -1.0203456543331206, 1.1211510373705103, 1.1471509802368065, -0.4754723506341032, 0.1090649864758646, 0.4587685427758179, -1.7474917289462184, -0.3272667909022549, -0.4488436129101451, -0.09509869867212177, -0.9225864516316754, -0.22410220107579462, -1.5739320468423506, -0.5814528603054802, -1.7647362603862808, -0.8991501093453202, -0.08050979761588609, 0.7808287180713266, 1.078780919834929, 0.7977596146374203, -0.08401920331554136, 0.8081919468357638, 0.4483581398593071, -1.5310423078342819, -0.2038409318889383, -0.3615951562438884, -0.5156276832145958, 1.7604298679338297, 1.0760535229332395, -0.6364714300949553, 0.6365210190762917, -0.33192911800251185, -1.4989272517097354, 0.13222459114458263, -0.6313119643716335, 0.5060880777535289, 0.12129137171722842, -1.6228519700975896, 0.08046967526223979, -0.024039935770994517, -0.16492139729170094, -0.8387857376446455, 1.7055892557153702, 0.2000061648852096, -0.5637440813335098, 0.9305260369111654, -1.1537574528265389, 1.2717724928425678, -0.1530331864467963, 0.9817570862574201, 0.40499184313683606, 1.1535498225754557, -0.035112062511411433, 0.21647668279650617, 0.20142696503096952, -1.4747754125275856, 1.730398427973718, 0.7659867659920727, 0.026234075530030872, 1.1032517265480137, -0.12946632592918486, -0.4080717807267316, -0.12533439579052494, 0.08230277075140764, 1.0030266749611227, -0.0047359514918978544, 1.5448982484290854, -0.4930162540632004, 0.9733202993590008, -1.3364403896535513, -0.6129322780273673, 0.5354622201393993, 1.2895814249322948, -0.21995083855928008, 1.5511081150627333, 0.04268610874627353, -0.07724048462516632, 0.9438851865957741, -1.230305404612007, -0.10451552547790817, 0.17701814584105588, 1.192424775795997, 0.9038822532259738, -0.3221949789400894, -0.12015738527112867, -0.6490368687901371, 0.5302045287467275, -0.7333397515276674, -0.6844706923462914, -0.4350791675692942, -0.6061943781025688, 0.1502189177697616, 1.2454139809860363, -0.052425917970384754, -0.8575763240949711, -0.17045238570332485, -1.1858352145374071, 0.5229496956886521, 2.263643686232706, 0.7157267643416058, -1.7251277052635507, -0.3542901546666783, 0.5019319355194107, -0.5698357188196379, -0.8489559483263522, -0.4036494260294461, 0.8442567093585471, 0.1756183579845409, 0.8918489169305072, 1.232448594356231, 0.337388380734012, -1.4697769849212086, -0.17025267350526105, 1.9063165699642468, 0.9313884011779099, 2.062167464581133, -0.5132149476684175, 0.6511116680455241, 0.3495740577507337, -0.18684349227003128, -0.5004374171373179, -1.43119016816644, -0.18866363641292366, -1.2168250652354782, 0.9920511133088907, 1.5624618091002838, 0.6351648589261191, -0.923837392247351, 1.367095780465954, 2.598827993360587, 1.0144451212979646, 0.4922307118461637, 0.7004164990681716, 0.719948798973127, -0.732398245891994, -0.48197109370218544, 0.06995023549350177, -0.5857261963157476, -0.41219723050680596, 0.3746248473200624, 0.2831992049318893, 0.04465900594174457, 0.8908966185500556, 1.9886385677862657, 1.221485436348237, -0.4131098898356337, 1.245264973130902, -0.5827826543989221, -0.26878629865611453, 1.547330186651732, 1.2456868079450523, -0.09191704958965762, -0.5725717068364905, -0.139973965990228, 0.03555770090273452, -0.13628034937565064, -0.08695353119349047, -0.6318222177135813, 1.3688922745962617, 0.9779895078968072, 1.8874386475382883, -0.3333313920157119, 0.060264307845499444, -0.5073559073787507, -0.20990527540578036, 1.1878205251265292, 1.853081562679048, 1.8480813352807486, 0.37293815219358833, 1.3513934001459635, 0.4294047156620417, 0.5483530420156975, 0.05366566736789183, 1.3899869137102965, 1.8205368829074258, -0.4758719193928473, -0.004709451211001257, -0.8103731754289639, 0.7611454394190934, 0.601913350963836, 1.4526962293839818, 0.32968094800951625, 1.1655435224771407, 0.7982958918898606, 1.1429983089185252, 1.0746264482490804, 0.10493951925404965, -1.9036264104769125, 1.137665266702841, 0.6116984224485429, -1.0391913368495547, 0.8091789316794412, 1.45065211735454, 0.44955963968297274, 0.5740917796967919, 0.4204325511315628, 0.7231264276171211, -0.16805472859639317, 1.009120492583255, 0.08253304874141693, 0.3877716141300861, 0.9975215857525188, 1.1871337055240323, 0.14850301046454698, 0.10336736710132584, 0.8516304894887188, -0.8049103739727766, 1.6908946461259566, -0.745588563094107, -0.23113643142692425, 0.03946298602879341, 0.34413141183296725, 1.138507573469633, -1.7897942756894738, 1.2826700712864376, -0.22781005586936037, 0.5101976931475447, -0.43455053950886147, 2.2641718595075853, 0.43343031394994597, -0.07317220126691446, 0.8109070261914022, 1.5359087978461659, -1.9028508486656515, -0.9266792189775038, 1.6162518202611955, 2.1021744597492362, 0.2137764441361914, 1.7451808741046262, -0.9420222782323197, 1.518028350188591, 0.9112259297513199, 0.5986650086441138, -0.44142910888519366, 2.153441062748685, -1.7759976820008727, 0.1954084742618341, 0.3305160493974647, -1.225995139273827, -1.8209888886562815, 0.8923717675714543, 0.41507752595610026, 1.0309958864960866, 0.853952329564025, 0.8966925815144671, -0.5557144723019211, -1.5353617557184445, 1.5044205955366232, -0.0011777013822521047, 0.35941493316684625, -0.7203071468570122, 1.009423500716374, -1.096565483825805, -1.0885048502523853, 0.8044184696962705, 1.1777779506256918, -0.5548310315994099, -0.7351110670915068, -1.3095226335178771, 0.03892359971041571, -0.14148777961812734, -1.2240327398268254, -0.6696913185600067, 0.592116750576759, 0.02761420588937757, -1.3076199205288266, -0.6073298719129288], [0.9156503059416451, -1.3889733936591784, 0.40742943391689623, -0.8792453173186618, -1.452208703945539, -1.0384495662590472, 0.13013353194486837, -1.3325084213269203, 0.579495087740905, 1.4278141213867632, 0.7468593398499185, 0.5002001764226565, -0.9839690377335091, 2.7610890577750333, -0.8102771686548472, 1.0245850276129773, -0.8113641933541447, 0.07160275077487299, -1.8101282994571741, 0.5176783654949682, -0.5466620481089977, -0.924184278149558, -1.5375834872871759, -1.0707557173318256, -2.539314509205561, 0.6883563044217839, 0.19672276549852166, 1.02803755867955, 2.961665575879015, 2.7211657210904105, 0.346656687829894, 1.7236755643052624, 0.5792958699572766, -0.003405981347836301, -0.26773800365905703, 0.9173762054477077, 0.9560507662098814, 2.041769155577264, -0.9548382428296207, 0.07795658592227614, 0.8785202812686775, -1.5501710996785387, 0.5702279527095238, -1.9402352419200264, 0.019155189717997203, -1.0974658335609455, 2.3575790866805684, 0.5805666005025308, -1.228711204430033, -0.8160018633250917, 0.9712233607803618, -0.47690193108974843, 1.541025430463881, 0.8014783438753582, 0.026446718642455166, 0.09962428101594814, 1.2080853154694928, 0.6370902640522913, -1.215352958246733, -1.1523941418958152, -1.2064817578672569, -0.16844884214959588, -0.24462865492980346, -0.46525748601706957, 0.1278768816490527, -1.3695439466196326, -0.9919485318934838, -0.7359849102456101, 0.3700888353174041, 0.544227901946976, -0.07088328559534843, 0.3714680952545463, 0.5748701576862203, 1.3760887016280825, 1.617551765581601, -1.4912070398437325, -0.6983124912168526, 0.10115703847049538, -0.7652367392390127, -0.7558393742642093, 0.6459897001089897, -0.8230615391364882, -0.3683503891259959, -0.3706838375236243, -1.9315281337367094, 1.5106735650665106, -0.14790612306539674, 0.016789154432029663, -2.0354780967901833, -1.4830014655271226, 1.8852480048792828, 2.9679427732620103, -1.7510854860224916, 0.6497891237597934, 0.5712853838726428, 0.9380444421513526, 1.4053001456850447, 0.04325473072420453, 0.7155700600426734, 1.1674006416760676, 0.10521765829805196, -1.5688287258860834, 1.0426553726677192, 0.7897328097551242, -0.6913087529125899, -0.20162121882924716, -1.1591675875215053, 1.165632858819037, 0.6394383707393114, -1.9173994377907804, -0.18109273273010168, 0.4127205572064275, 2.19544753718417, 2.334922891566166, -0.9602998832262545, -2.689252228900152, 1.1958590446983595, -0.49280512749879457, 2.3982041712306432, 1.312468374794187, 0.3472450151090764, 0.5100702766238546, -1.7747005445455417, -0.6677573178940499, 0.1860263574356178, 0.31190173313587455, -1.668761583577752, -0.5679351201312801, 0.10409343860140725, -0.2832255952383614, -0.9827152654939161, 1.1601689155865516, -0.7863533942901603, 0.38620372463493713, -1.4030071147697187, -1.7647091685054097, 0.335243016461181, -0.177739017228608, 0.9549189900705379, 1.3086914538175403, 1.451252264399686, 2.292113113486603, 0.11078328848898321, -0.12113059983223823, -1.0361889301604919, -0.3612412185150543, -0.03219367279507768, 0.013021631217843227, -0.07657471495161199, -0.42005287564383204, -1.138275051160716, -0.30652823620941294, -0.14222408544050957, 0.319242049627937, -1.3387399363132673, 0.6240300858867973, -0.09156479856233413, 0.5649609079474451, 0.45852464716828706, 0.8432493382700462, -0.6157370894508922, -1.8896195498637895, 0.7498217723901304, -1.4973636093962093, 0.020877302855192653, 0.18678103579112165, 0.009066128875258529, -0.6650555477716259, 0.5770478592315148, 0.09409903509043968, -0.32462535724786457, -0.9962122382918859, -0.5035045840769232, -0.24820828636621978, 0.7557023861973909, 2.1109482049335764, 0.14338396968100262, -1.664861951009837, 0.46699819488583494, 0.2004712392107482, -0.2034731603208278, 1.2849679658609963, 1.1597799950700605, -0.007691442196126591, -0.5527145448693151, 0.31319714730399567, 0.7939314193684676, 0.2319755265382487, 0.7843839159019056, 0.6502273318995383, 0.16751829421376876, 0.5349902446136281, 0.17171832215314325, -0.6945603403280375, 0.38745507219024766, 0.9457350941996924, -1.8056757763247338, -0.3592521363560033, -0.45914770562442, 1.6572309566914571, 1.211838299086578, 1.2517938510729083, 0.6599113191377277, 0.7274366422338097, 0.29766197894426316, -0.7155220074131555, 1.3948135864116284, 0.9427842287249025, 0.6095018204382633, -0.22343354846950533, -0.035636173734575005, 0.3447124477559669, -1.2769438276680727, -0.0024700326984657506, -0.6578448932063176, 0.4863291090039845, 0.5573131309760188, 0.49508010874595115, 0.639343392889895, 0.42685492944468145, 0.22508867428288085, 0.004698255191027113, -1.2210101306112056, -0.06678400754247847, -0.9142294490529196, 0.04799346995539872, 0.8635056229031695, 0.5569327646196248, -0.7025048355486838, 0.20623397488829537, 0.43618470538765597, -1.3050250021596452, 0.6919146365261485, -0.11802861159910946, 0.8497368332905793, -0.046790973901311726, -0.696627818096419, -0.07303290674816537, 0.5288401343182142, -0.2501025373133722, 0.45911996093391083, -1.4838081357665325, 0.8788497611615712, -1.5662403066849693, 0.1399616654888213, 1.078640298136881, -0.5941844979110282, 0.29241076182608977, 1.4396108340827856, 0.09066020843529157, 0.5460188327917959, -1.4584519335058674, -1.3982811349684718, -0.12049069725257763, -0.10053299652257784, 0.4466034229185181, 0.6550730890238774, -0.020930761643810733, -0.6863508617854964, -2.0257056875648054, 0.36601827534529946, 0.10625043842864142, 0.048845838198778344, 0.36661481991096406, 1.5273540179222933, 1.751342108106379, -0.0691769157940026, -0.09322893906883767, 0.890159778248024, -0.184378679647699, 0.013316761583025269, -1.1651216433288274, -0.6744881187171147, 0.1312496218166546, -0.20708743138614355, -0.7125569026468536, -0.9904785480485198, 1.7766837133989897, -0.4762067649099275, 0.30861356639052256, -1.5128233266147242, -0.15243538366212947, -1.0010805893638928, 1.1383410892768648, 2.804296330403475, 1.3922388321808208, 1.6919505003552835, -1.4978584984948706, 0.8879277700834489], [-0.21349513556338673, 0.039456953109757255, 0.9702268139776627, 0.22939350551400464, -0.7619027476940818, 0.4141883475082393, 0.46750015610843837, -0.593818109238458, 0.5845358504809768, 0.4161804866463825, -0.6810718455982859, 0.6249857462243963, -0.1289248806272998, 0.6768669535852501, 2.0287346892446956, -1.977447807817492, -0.7828677203339562, 0.2520623590356197, 0.5686991162189868, 0.7038384232526046, -0.08655697826773583, -0.43544583360578093, -1.1724887668133765, 0.7655001194869357, -0.33495040399727594, 0.3580790635382197, 0.3007744357318156, 0.05155409028117088, 1.8674279590816532, 1.5054416128714283, 1.5813432384269677, -1.0126353441647762, -1.9699027555393989, 0.12780082147741548, 1.0788146265888565, 0.06098383764126722, 0.02775414011576022, 0.18105732144080577, -1.1639674470676693, -0.5010651788209677, 0.5369802871614199, 0.4851646244365414, 1.933126869558015, 0.834724261883608, 1.0167866443896956, 1.997823956154104, 1.2192462074746233, 0.36481206317482695, -0.6198364028313895, -1.5893064534587247, -0.20722926056580784, 0.12200187397213028, -0.17752816690052373, 0.024172762531240934, 1.1424291431758007, 0.09274488369868003, 0.6040823782479164, -0.8665897380816132, 3.0856201339256035, 2.6246261066983174, 3.821620594114178, 1.3273353681008653, 0.38983088075809474, -0.8297497394199862, 1.4995489682967753, -0.5635259244025976, 0.9570780661886535, 2.2164030860930914, -0.07676650475752568, 0.2650446988460222, 0.5711744021233666, -0.27983545352100814, -1.4790414019539284, 0.358871416936431, -0.35372554483726204, 1.1339523017680326, 2.1004241032038418, 2.6855463731096814, 2.0557100614330537, 1.601140194801858, 0.5134830269292132, -1.3920844885544656, 1.078974345207786, 0.36847226361645635, -0.3000148290269005, -0.7146456550321945, -0.12844098077099947, 0.33593791515482496, -2.9900181035152404, -2.348560767703291, -1.2775434149921798, -0.7510010838335242, -2.314303248197658, -0.7325911237516637, -1.1692227745412382, 2.717434033596311, 0.5899809752735703, -1.4652015753552246, 1.8084173091121885, -0.47872023030075295, -1.1589155644894547, -0.5021082970318083, -0.07142293323775091, 0.3880242562119656, -0.41880262445667, -0.19482175970960236, -0.35392786979421603, 0.6409981025351611, -1.003617197935241, -1.3141087549418728, -1.896752156981391, -0.7962031313045922, 0.05741241299828215, -1.245926489490987, -1.2354435428761643, 1.9691139412146865, -0.12053727585074933, -0.7618687810868273, 1.5556283807247113, 0.7525223814235329, -0.8690927574994777, 0.43605054898266976, 1.2710683912663079, 1.3183853844823104, 2.21338299376979, 0.7015117288787588, -0.8630682489800124, -0.8659662591120182, -0.47342394792647274, -1.7128534545116674, -2.13334198235373, 1.2103802288029313, 0.41596227043671496, -0.49577053859976167, 0.04585915471253284, 0.44523615266037114, -0.4637386954862295, -0.13514630964634639, 0.6597727545638434, 0.36267781934306514, 0.6571604543244843, 0.6332161482220918, -0.5472336338185696, -1.431032460930418, -1.4304898068525072, -2.356018235656636, -4.184940905699969, -1.2796622622488691, -0.7577842841001692, 0.9095172819927244, 0.411453174545262, -1.018860998394527, -0.8023133170524992, 0.11281864418462136, -0.19859653886440526, 0.5697704628724128, 0.7485251007479479, 0.6114635329437236, 0.053022019454840634, -1.2272781211130068, -1.5384624946918362, -2.4280325030536085, -0.49697470704934893, -1.0334135080899258, 1.0515719306076174, 1.0805914193567216, 0.6462658858642178, -1.1488416438180604, -0.05111131787079808, 0.9151300760040129, 0.12126522031549603, -1.3018623844651422, -0.7590520969845278, 0.7361277491696098, 0.1911811238747603, -0.2335132450473586, 0.3615306190060562, -0.9737178007296374, -1.1296540216494437, -1.6527602253041493, -0.7403680143760986, -0.30615265205833725, 1.1159711616048886, 0.32610004022458927, 1.8475110708944187, -1.4811942737979853, -1.525850246929308, -0.5709581316593242, -1.7786725597874888, -1.1654390300108142, -1.2547916180952958, -1.0608893612487265, 0.6989036472402501, 1.2019712897735524, -0.0036960383677916353, 0.2713085837247897, -1.6663246001003584, -0.41843697489214593, -1.4637360832448751, 0.2930117891165117, -0.716451771713027, 1.0904408797311902, 0.25074936197787523, 1.7965894183342435, -0.9251449572448777, -1.443007574075461, -0.7876260548229824, 0.37139597464896684, -0.5187065641447366, -0.26399503769515104, 0.8963699300008657, 0.48034966401564083, -0.8633753074681914, -1.871224486298012, -0.09889404586171056, -0.0929194154732905, 1.5712377418905392, -1.3190636772573245, 1.141080808509859, -2.4030800303882796, 0.3616348748844334, -2.414238768765293, -2.075184710085803, -1.2501253792879379, 0.07726172005868866, 1.3659567051475223, 0.5661415255910833, -0.8987056344675525, -0.27560183531917903, 0.16632162340345683, -1.6046807343296399, -0.6225842122817197, -0.8931021486526004, 0.7870020915801412, 0.09217929064635294, 1.7520353108000497, 0.750218962184544, 0.09420662530725896, -0.08884718654969709, -0.5269373344044647, -1.6968630060687895, -0.33296001208364984, 1.4333344957023717, 0.916446783205497, -0.5734240897912105, -1.1986704134831607, -0.024834407125468985, 0.5943357603494355, -0.9195052266222508, -0.07274634016340811, 1.8803497932111939, 0.6175764298996128, 0.3684887601892771, 0.9065059804691753, 1.232888470021286, 0.012136307059003216, 0.7629108570194401, 0.6148423975912313, 1.6213271168151142, -1.2472755843239562, 1.417936444694078, -0.5164141551743247, -0.8226767990049708, -0.5479655264473493, -1.5203977763338588, 0.12700509976836993, 0.8724527383144669, 0.6309274703899533, -0.30729229775438277, 0.42078867034435774, 2.075047024443713, -0.97763650631555, 1.2118840029545486, -2.69475326850736, -1.3030334497736726, -0.114531719534586, -0.5403938927595631, -1.7350418624477493, 0.05501270988662022, 1.5074174347539369, 0.5502948210924488, -0.7990162750463425, -2.840605933043984, -0.16577400142935653, 1.2120918840977801, 0.1390760441389668, -0.5354612416382796, -1.2211462369142518, -0.4968976597280355], [1.0593441099230012, 0.020080421768123392, -1.544863613129397, 0.13104830400983986, -0.4141011230179351, -1.028303505983778, -0.21817016150707755, -0.7808277423555159, 0.38800378754097864, 0.18702835134242016, -0.9468407964545563, 0.8453996136949471, -2.152747351923598, 0.8567028690189836, -0.15030497937602502, 0.1373015600798956, 0.3971057148540888, 0.5952648226149159, -1.1368468870489423, -0.22452568103098303, -0.7823175754427409, 0.9175755168917976, 0.8750201245244292, -0.06573048204386203, 0.100991222675335, -1.2666564470611823, -0.60038212300225, -0.3514648834351131, -0.7301926769526582, -1.0338096302843793, 0.3248900428136646, -0.03099896366438053, -0.7978951257114166, 1.0386884132138972, 0.18421972281213259, -1.0960739073279642, -1.2859437060648058, -1.71495221846247, 0.5715394685036009, 1.4327586106126455, -0.27946154801194484, 0.0153783011238461, -1.0820997783582424, -1.304710636837569, 0.5078156095833164, 0.12046956889967335, 1.8862983566900942, 0.11268465204469524, -0.08969681862687975, -0.36951194482341726, 0.4307405124312787, -0.9175167182098455, -1.7381720218817651, -0.8933619295600689, 0.40596320380422085, 1.919367950349502, -0.9743108874836703, 1.1756673732558711, -0.8511891746131989, 0.07774724624405824, 0.11762371042069637, 0.14992441315924604, -0.11790006198142933, -0.7824944033979356, -0.1013321597710813, -0.006808074353015267, -1.5791767996803074, -0.023209295384016827, -1.3668172109673056, 0.22865928035856886, -0.8886529338142527, -0.13999610057155576, 1.0658859732517334, 0.25771079684062187, -0.9746767561781537, -0.8657050277411077, 0.14862388896275147, -0.5982849928896686, 0.7155410311773357, -0.01878413794497321, 1.0102270697853948, 0.2394288040741281, 1.7931277660489509, -0.7729370354264086, -1.6193408231594888, 0.7231468397639579, 0.6339375737948777, 0.028263927886089703, 0.3227101089369346, -1.3763531009856624, -0.16860762178029517, 1.348315853597258, -1.3998291008714672, 1.3027331108358084, -2.67400003137012, -0.3900080322532446, -0.1421188923600201, 1.1320602410884621, -0.1841438519592823, -0.7116508199744321, 0.38485975110239656, 1.7977581652209538, -0.3541278059374195, 0.5895569715632759, 0.7981149004608888, 1.3161883929398408, -0.3070363524020766, -0.7126385270431942, -1.4030321586568524, 0.09796646034455998, 0.40941873199937473, -0.25346167461709096, -0.3694441320478166, -1.5647916110198168, -1.0101658768530604, 0.2571386373176228, 1.4795798820849413, -1.9507241732994378, 0.6909937465748944, -1.0288144051235548, -3.187840582885508, 0.7147989004187117, 2.1509880443669753, 0.5258151903338006, 0.09833071027152812, -0.558767970640678, -1.331942378748034, 0.9296715161831574, -0.46298948456819083, -0.02815340879266553, -0.758224226413168, -0.6031220744790476, -1.2330020417615992, -0.2270949682906701, -1.1473323907745576, -0.12637464588589464, -1.3647454461097794, 0.4875165214748703, -0.33928759462690816, 0.5832378563999991, -0.35744045904282323, -0.23942904064397352, 1.2422649506645163, 1.8083966439662698, 0.3536119837490007, 1.0290046366706027, -1.0235665348646426, 1.3306303516612836, 1.6031651906654356, -0.8832293766887539, 0.12534284858908487, -0.3624041048838765, 0.6868623343553673, 0.06530633315112566, -1.6822117358198538, 1.0311023517209128, -0.8176588560060577, -1.0430709038616588, -1.4574651261345537, 0.6400050219907724, 1.0160133032062777, 1.2420698215469155, 0.7928834583978824, -0.041802363511302655, 1.1350911072884444, 0.8406575260232654, -1.8869598053646528, -0.12087010864735662, -0.2749014191408685, -1.5732392843919698, 0.05127036163827197, 0.48623179154086904, -0.23765782235358834, 0.2795395696379559, 1.4297509148935046, -0.0877978111417037, -0.9577806459660769, -3.4955152025907776, -0.4088846676601535, 0.001926818325871604, -1.770325377134974, -0.10507360175949172, 0.286663326270155, -1.1612741980739152, -0.030111666600971386, 0.6776050822291827, 0.383615802409696, 0.4157490824840815, 0.2683950062530861, -0.5658494417999002, -1.552832499843413, 0.014941935206916583, -0.266330412828174, -0.4681395230276899, 0.9612662007027328, -0.23623029287187494, -0.7132029552705735, -1.9659811751931073, 0.03128024490543727, -0.4216823340987625, 1.4763381246264244, -0.15618103224106689, -0.7033228953667165, 0.9864091577555103, 1.0540373946323658, 0.1535046246683714, -0.1587775926275687, -1.2606539814884534, -1.1782604166714692, -0.5910627101010548, -0.4249618721594926, 2.70437603845152, 0.819521970505975, 1.402346374764143, 1.2376982964903043, -0.49430717612072655, -1.143058759593993, -0.3266958206176558, 1.078185390677737, 1.5768987220905917, 0.28491223582643566, 1.012276718915303, 0.07608513927058587, 0.8945354444141256, -0.5556167319692935, -1.8174307154346139, -0.9854041317888358, 